-3.3790202,-0.91970825,-2.460778,-1.2093036,-2.0328813,0.875914,-0.54538107,-0.7548478,-2.702695,-5.54857,-4.4479017,-5.826909,-6.069546,-5.050923,-8.908989,-5.4943376,-0.97099674,-1.8500891,-3.9013114,-4.5027227,-5.903871,-6.2908363,-1.1092327,-1.2878861,-3.1061478,-4.859572,-4.537893,-3.981896,-1.0004308,-2.3444068,-6.629097,-7.110671,-5.038408,-4.5139494,-1.3013089,2.6976097,-4.347898,-0.7174988,-3.0596633,-2.020198,0.6264684,-0.76033676,-1.5733417,-1.5580685,-1.3883195,-5.1954966,-4.216758,-0.90558445,-0.6848761,-5.6943316,-4.9750795,-1.5453148,-0.23960114,-3.2684479,-0.11926377,-1.477773,-3.1167524,-2.6395245,-4.403881,-3.2429683,1.4534689,-1.235782,-1.785342,-2.6132545,-2.125021,-0.19754386,-2.5936332,-1.4157052,-4.860113,-3.7353134,-2.4754403,-3.500417,-0.07660046,-3.883874,-3.7121222,-2.7165768,-3.3709085,1.6420496,-1.7643043,-1.0087672,-2.8304605,-3.1526504,-5.344098,-5.339199,-6.326871,-6.0922585,-3.9412398,-5.019344,3.1159077,4.427537,-1.5492136,-1.6061127,-1.3220787,-5.1973634,0.9081384,-1.7648466,-3.1218982,0.12554336,-7.1565914,-3.42776,-3.4430032,-2.4855323,-2.0984106,-3.3090792,-3.9024804,-1.2494218,1.1576555,-1.7823454,-2.7816021,-2.8426428,-4.300797,-1.8449681,-0.7977774,-0.6846833,-6.2030134,-4.666186,-4.1494274,-2.6985397,-4.262311,2.7657084,-0.63032687,-0.9700848,2.3906937,0.8787338,-1.6770931,-2.4467676,-1.2405627,1.1278257,-0.9968983,-2.8946922,-4.5243297,-2.4208,-3.5038462,-2.0196543,-3.2079597,-2.454298,-2.0819616,-1.9366293,-7.5923448,-6.2698293,-2.6815367,-5.3352923,-3.9085665,-6.808927,0.19199514,-0.61048543,0.48567104,1.1766443,4.360669,1.1639315,-2.348948,-1.060851,3.7085164,-2.2525282,-1.4555445,-1.1743729,-1.7827266,-3.1037607,-0.036724806,0.3926991,0.71777576,-0.39155194,-0.09120542,-1.1719996,1.4828703,-3.0547905,1.5227544,-1.2743349,-1.2005713,0.744643,0.77264494,1.4560311,1.5041273,2.7783108,0.7950779,3.5346186,-0.76424825,0.86364114,1.373785,4.0338225,-2.2486832,-2.4253194,-0.36590427,1.6690288,-0.7066035,-0.6957443,-0.4517961,-0.1814963,0.4636882,-1.714999,-0.07730548,-3.616716,-0.63832057,-0.2042042,-1.0007133,-3.4231515,3.4138308,1.0145549,0.60985965,-0.70131314,-1.1460447,-1.5575523,-0.6165908,-2.8238387,-1.1156087,-0.60884404,0.50940406,0.4100715,-1.7167156,0.7397796,0.79385495,-0.9169389,0.4493748,0.712824,-0.8972467,0.8993472,-1.5989363,0.29826772,-3.1802216,-4.0784807,-3.073499,-0.3064413,-1.7116282,-0.99303246,4.0973406,2.9911232,2.4797895,-0.16108808,0.44922566,-0.8249445,-4.31076,-1.4051341,-0.5031555,-0.07197192,0.98175424,1.5283608,1.7131457,1.8798975,2.7899523,-1.8651968,-0.77821547,0.43372193,-0.6949311,-0.55351746,-0.44284847,-0.21274728,-0.88677084,0.9838021,-0.3599742,-0.53763443,0.616619,-0.25870425,2.1302712,-0.75633144,-0.6120933,4.13218,4.986655,0.6742391,1.8106966,1.7250556,0.38330734,-1.8474379,2.4611254,0.36554837,0.7389567,-0.25176215,-2.090274,-2.3758256,-3.8832207,-2.1427214,-2.5168397,-0.19667132,-2.4522688,-0.9204649,-1.778622,-3.8083906,-5.023835,-3.590113,-1.7028034,-3.3334875,-0.7281948,-1.2318095,1.293489,-1.5545207,0.61641514,2.2008488,-0.09020589,-1.1090969,-2.24467,-4.0427537,-3.743184,-3.8708718,-1.908774,-0.9274472,-4.5476084,-4.566727,-3.2392735,-1.5894864,-4.254267,-4.6154838,-1.8103161,-5.2624207,-4.5076394,-2.5741882,-2.6000175,-6.892517,-4.557845,-1.863997,-6.129302,-3.9833446,-1.098392,-2.7301707,-3.3621821,-3.8163872,0.7490547,-3.0657845,-1.1023194,-4.6799707,-7.3629756,-6.3697996,-4.2519608,-4.5070724,-2.5908608,-4.233088,0.2663653,-6.5808506,-2.6954546,-3.4938254,0.7083867,-2.9412422,-0.45064193,-2.1330614,-1.5080788,-0.23563004,-3.342597,-5.413842,-5.5820374,-1.3075128,-5.48417,-1.5771197,2.2578688,-0.70721006,-1.6348492,-5.6620364,-6.2362556,-4.8064895,1.3597114,-2.0786092,-1.5918474,-4.5090833,-4.9452734,-1.8810151,-5.8552923,-3.2506528,-6.868335,3.4220831,3.0886035,-1.4652722,-2.970641,1.3601245,-0.14238583,-4.26933,-0.59319913,-3.4718246,-3.8693833,-2.944719,-1.2230949,-4.6782656,-2.4707205,-3.9038844,-1.082427,-2.518053,-3.8590546,-4.2820144,-2.7695305,-2.8532672,-2.9958923,-5.0935864,-2.8882663,-1.783191,-3.249312,-1.4560262,-2.5876791,-1.8419213,-4.008428,-3.9509087,-0.6999086,-0.8074585,-5.922762,-6.1403894,1.9244369,-0.143565,0.77237546,-1.0820816,1.2620823,2.3816302,-0.685033,-5.246908,-9.348828,-3.2818735,6.235504,14.017701,-0.44218114,1.6593642,0.33567083,1.408371,0.06974235,-0.67915225,0.93643296,0.80476093,0.18953675,-0.76052886,7.1644106,4.8377137,4.8187704,12.297581,-2.2400672,-1.5002906,5.7693343,-1.1781248,0.99553025,-2.1149397,2.5470076,1.6300987,4.5895753,2.8424654,0.659274,-1.1459546,4.4116473,0.2196688,3.5353224,2.8168705,7.8502426,-2.8522875,5.1016474,4.4695144,-0.10099316,0.11809464,4.839328,0.18491523,7.6799884,-0.79739475,-2.4199917,2.3675754,5.0138655,-2.5918758,1.8397379,3.064301,8.780075,-1.2006713,-0.57472444,6.7447076,2.0220704,4.737214,-0.2669723,0.8399299,-0.42620385,4.9074955,3.7049918,0.40660688,3.915247,1.1922832,5.5639887,0.910682,2.5644083,6.9138565,9.64217,4.350256,-0.9298436,4.3368583,-2.081071,-1.0669408,0.28138125,1.4050933,1.5858655,2.660191,2.1438365,2.1482427,5.003,1.0782716,3.2914417,0.9143666,0.33230674,-1.1352301,-0.64862967,1.2776471,0.96488273,-0.41710538,2.987752,2.6503391,-0.19191015,3.0440843,2.0756185,0.2523209,-1.3807447,-0.19821943,-5.3650503,1.714797,3.0280337,3.2115297,1.6204302,-2.779355,9.662637,5.2034655,-1.3474005,-2.6623566,-2.3818436,2.7201,0.49753937,0.31938395,-0.9218921,1.6321634,3.764149,1.3883865,0.034104884,2.207482,3.0587747,5.64139,-0.08441311,6.5308776,-1.2031014,2.3138318,-0.5667459,1.1938725,3.316093,5.316844,0.80851924,0.014868259,0.55829906,-0.64225256,5.552525,0.5010122,4.3658204,-2.0362315,-0.08174759,-2.9746425,2.8955941,1.2962081,5.471345,1.0925546,-0.9256289,1.1912674,0.51484454,-2.9635854,0.44476342,1.1494305,1.8691511,0.5741682,2.5104196,-4.3638253,4.2586074,-0.98522717,-3.091372,0.01706405,0.116343856,4.375826,-0.281592,0.25343496,9.28371,-0.22277236,2.7463086,2.9777179,3.699539,-0.34251595,0.41096017,0.5162389,0.030394614,-2.3847628,-2.3584337,3.0873249,3.6734638,8.903027,1.8160591,-3.2190697,3.0938509,0.82802457,2.3074186,0.563895,-2.1265311,7.03158,0.30785587,1.8300298,-0.80803186,1.2270373,0.049550742,-0.19227576,0.76494384,0.15073833,3.645421,5.925948,2.0410848,3.3550003,6.4077473,-1.2054262,2.895323,1.1530292,4.880393,5.8955216,8.362669,0.6330687,-0.43852878,5.08794,8.925324,4.1410155,-1.6277368,-0.81638575,-0.53194594,4.8150053,1.862095,6.7719564,-3.2622604,9.533289,1.051401,4.539434,3.2838209,2.3100207,6.4772787,3.043519,4.1533566,-2.2964582,0.33182362,0.56426716,0.8279473,0.9772705,-0.5171261,2.214937,4.446246,0.23179132,2.7094047,2.0370717,-3.0924973,5.221074,2.4310067,1.4278294,1.7174449,-0.42692056,-0.79039043,8.865763,0.8439206,5.482543,3.7046864,-1.8048911,0.0093809515,-2.1026685,5.1654124,-2.911477,2.5337899,-0.48843265,-0.1475909,-3.3577871,-2.0719993,2.2051854,-4.5050664,5.4873314,-1.337218,3.4603384,5.5555706,3.4541144,0.44158107,0.56470305,-1.7541323,-0.6058564,-2.276185,0.69067943,1.5814447,0.74437976,1.6794511,-2.4460466,12.281868,-0.5567118,3.546381,2.342478,2.6236937,8.394696,2.833755,-1.5310292,1.1718205,2.9493363,0.5239761,11.298052,-1.0930157,1.1558235,0.6783521,1.1648695,-1.6686538,-0.92841107,-1.3089131,2.7191777,3.5913107,-0.6468041,9.320307,-1.7347436,7.8076944,5.3743973,4.1566696,1.4074149,-0.002951622,1.3202257,3.6155202,0.87144697,3.237278,0.4693148,10.835595,0.80088234,2.0597148,0.95456105,3.1017172,1.1684706,-0.6447657,1.4219847,2.6399202,1.3588771,0.30223322,-0.3897649,-0.29126102,0.7915407,4.6499395,0.023401141,-3.5443769,-0.5468758,-2.7810044,1.7050198,7.3240657,3.3489618,1.7368871,1.0398014,-2.0311232,0.07599403,1.2114706,5.6557307,-4.9174037,0.0059080124,3.3337035,2.4617836,3.1365967,0.25582373,7.1125,-3.9689615,-1.3645098,0.051739395,0.24566174,4.7520046,2.3533735,2.7703345,2.081791,2.1702325,-1.5383812,1.3835928,4.660352,4.7808704,2.1343257,10.24786,6.6841054,4.441867,2.7076232,-2.4928813,-1.8327587,3.0648217,-1.2090266,1.6340452,4.377059,-1.4466184,0.4198354,0.34829456,4.0885534,5.337605,-0.108910695,-0.7494472,-0.5409921,2.1502852,-0.44890213,6.734215,-1.4823551,0.10933018,-4.087634,2.3437123,7.935575,-0.32789004,6.1781583,-0.7617531,2.9573607,2.8899515,-1.3327757,2.0739493,-1.0818691,1.1727855,6.4143806,-2.490724,6.330211,5.005838,-1.106018,3.5470376,0.5373029,2.6186833,4.8519855,3.9867291,4.129057,5.7256103,14.876753,-1.8759012,-1.463865,-2.7315562,7.6609087,6.1216655,3.9053316,-0.2418941,2.1746182,2.0104687,-2.1593301,3.3533864,-3.4638436,-1.8430585,0.58166313,0.4823613,0.6692251,3.8483605,-2.6057262,-2.9739366,4.971004,1.310915,1.9965465,0.4757986,-1.2116907,3.1732526,5.029953,6.111888,-2.9786382,4.349953,-1.6990796,-0.44194603,1.761696,9.288098,5.0637417,2.938198,3.3592007,4.7026987,-0.6848202,5.244919,4.4491944,4.2413716,-1.3251354,3.9558864,10.852181,9.978954,1.1349542,1.9012077,1.1998963,-0.70548797,-1.0862666,-0.54032713,-2.9088488,-2.6523764,0.11068197,1.8404001,-2.3795488,4.7847385,0.6807681,2.1957588,-1.9659135,2.1570058,2.41454,0.039058775,-0.50845414,3.6997497,6.258721,0.53233117,1.083452,2.6837234,-0.87330526,-0.43789464,8.729554,1.1149393,3.4076457,3.386425,-1.723274,-0.32009423,-1.3038526,-0.7842718,-1.5223333,-1.9989347,6.5716524,1.5883048,-1.2413228,3.5611336,-2.5250757,-0.3239468,9.960125,-3.0226626,6.226929,-3.9987319,-0.071806245,1.591496,-0.9667523,0.07374394,1.6950483,6.582239,4.0804176,0.949482,0.682447,3.9706283,0.74860567,-1.0570567,-3.5059636,4.024124,0.7209488,-1.1740506,-0.6906396,6.6041393,0.9986204,3.6494794,-2.7748692,-3.4213412,4.824503,-2.307677,-1.9328401,1.5769868,3.0945952,0.8509859,5.472011,-0.004011072,1.8819845,1.2222204,3.7151458,-2.8661714,-1.1339853,-0.08401105,-3.4810107,-3.8670526,-2.3406034,-2.0611541,2.4948673,-1.0227449,-3.472,-0.467327,-0.8761308,3.7281346,-1.4092362,2.9588475,-3.776272,-1.8595234,-1.4923449,-2.2082558,0.6371319,-0.5167049,1.1799363,-1.9129064,0.4340297,-2.9404192,-4.8062525,-3.4336016,-1.9755557,1.7621421,-1.0113949,-1.5578711,-0.14970668,0.064329505,-1.9940014,-0.36779848,-4.0154257,-1.9692824,-4.0870304,-0.47562778,-1.3668773,-2.3792524,-2.9606416,-1.3221818,1.0348662,0.8341454,-3.5337052,-2.7398858,-2.6024573,4.746388,-1.6697397,3.0346918,-3.136874,-4.740997,-1.0971625,0.006641805,1.8380145,-0.9257591,-4.00931,3.3981326,6.1131854,3.3823788,2.2810073,0.8384267,-0.8186156,-1.5217485,-0.53750885,-4.051199,-0.5198349,-3.5665336,-4.047759,-4.6531134,-5.365303,-3.1568954,-5.000116,-2.8464823,-4.61451,-1.0145116,-1.4248972