-3.3789263,-0.46640703,-6.0151997,-1.7723927,-3.1998763,0.8368803,-3.1333702,-4.576759,-4.71088,-3.995406,-1.6866546,-4.072461,-3.182941,-1.6530176,-5.335348,-0.75850993,-2.9477248,-4.1730094,0.13153303,-0.40001908,1.1472371,-2.0306897,-4.3307047,-4.5537934,-2.6210456,-6.27962,-5.5531673,-6.128199,-3.2866583,-1.967741,-6.6680484,-3.2335835,-5.2100554,-2.4506977,-1.4923718,-0.5051693,-3.1328456,-1.4407365,-5.133599,-2.860608,-6.542222,-4.726072,-4.845426,-3.8523614,-4.278283,-5.0809636,-2.9275842,-3.397098,-3.1850836,-6.3842235,-5.65596,-1.8280609,-1.4453044,-1.0991213,-3.8935757,-0.2715531,-2.3758304,-4.526104,-6.0721264,-3.182392,-0.8839785,-0.4433545,-1.2697415,-2.9299178,-2.7077954,-0.81326663,-2.2454834,-2.6318855,-3.7746975,-3.0869288,1.0967264,-3.701478,2.4610379,-3.2205172,-1.1088939,-2.997192,-1.5213969,2.1624022,1.383758,0.2644701,-1.4719326,0.5905806,-3.445366,-3.0291734,-3.8522458,-4.6433244,-3.2336974,-3.5146277,-2.0115693,-0.8902288,-4.70636,-4.1767106,-2.4331298,-2.5443974,-3.8000154,-3.9592824,-3.5593605,-3.7013054,-5.9260464,-6.2371492,-2.370131,-4.540327,-1.3704286,-1.9927545,-2.8696458,-1.0623167,-2.9339156,-0.68759036,-0.26427448,-3.4619324,-2.843608,-6.8454866,-1.7891846,-1.0064362,-4.6390038,-2.871839,-5.465331,-0.68344516,-2.9176476,3.0610685,1.2177861,0.3681694,5.7685285,3.683716,5.951077,2.4914796,-3.1151226,0.8883088,0.37930566,-0.12449646,-2.498568,-4.2336106,0.27501822,-1.8896949,-3.5382533,-2.5774865,-3.756964,-1.4508502,-1.7012324,-1.3979511,-3.1222672,-1.030545,-1.8378681,-1.2329149,-2.2966816,-3.9956193,0.070937395,0.8951864,-1.4890182,0.2428602,-4.8160515,1.1639683,1.6204566,-1.9109745,-2.3322632,-2.4991279,-1.4267977,-2.5287912,-2.2294075,-0.47341928,1.4845247,2.6875558,-0.5809465,-1.1691395,1.5348531,-2.26513,0.05426252,-1.496887,-0.29732037,-0.9566848,-0.06857628,-3.5321782,1.0691526,0.35838675,0.56220233,-0.21937299,-0.13324922,1.8919041,0.66268504,0.8927717,-1.3496166,-3.520422,-0.016027302,0.04168585,0.44435266,0.020003617,0.768639,1.6171116,1.8583459,0.51071453,0.99893737,-0.024303198,-1.1044508,-1.329996,0.7094227,-0.22808069,0.8633952,0.29481536,-0.84701794,0.13630736,0.8011785,-1.5825,-1.6323154,-2.0073395,0.9421934,-1.019874,0.13473487,-2.0322628,-2.6255813,-0.5406642,-2.5535676,-1.9138048,-0.14463282,-1.8251696,-0.09873049,-0.9851427,-1.1986907,1.4841337,-0.8887484,-0.5943046,0.7923901,2.6459105,-1.3416038,-2.7757556,-1.2113073,-1.9411509,1.4889711,-0.6856857,-0.5711856,-0.97460145,-1.4863471,-2.0682502,-1.9289424,-2.965563,-1.0607065,-1.1858885,1.0752584,0.093647316,1.1489487,-3.7438831,-5.017913,-2.1954288,-2.6174037,-4.2632074,-2.890788,-4.3854036,-2.4097793,-1.3059494,-3.9180794,0.14136696,-1.9232187,0.24153468,-1.2064037,-1.1026902,-1.0666262,-0.9158122,-0.7428403,0.060248297,-3.482841,-3.2293317,-2.7411928,-2.6988616,-0.4928875,1.712759,0.19332117,-0.13238585,-1.2995464,-0.3538143,-0.81379277,-0.12749028,-3.642854,-1.078414,-1.4629254,-1.6066164,-0.84741604,-2.3693466,-3.6398067,-4.8420167,-1.7561436,-3.225179,-4.7275796,-2.808478,0.19229612,-0.4878719,-0.6853447,0.22343224,0.11859052,-1.0571818,-2.4148376,-5.360944,-6.2538366,-5.4661484,-2.965671,-2.3697498,-2.707264,-4.9517074,-1.221726,-2.8055,-4.2045164,-5.5958815,-3.0000727,0.050661802,-2.444283,0.58745694,1.3811669,-1.8270042,-0.650896,2.201957,-0.11895263,-2.5183063,-3.2796268,-1.0982386,-0.1972605,1.0813208,2.5126579,-0.018672347,-0.20105496,-3.3717685,-4.868803,-6.132942,-2.442202,-1.3515897,-5.1251106,-7.6968904,-2.835722,-4.8257875,-5.5909686,-5.397179,1.1225836,2.6223505,-1.4667822,-2.183097,-1.6114503,0.98600733,-0.6068758,-1.9476178,-7.4651556,-5.1840377,-1.8698006,1.2908065,-2.51744,-1.9007466,-3.2530098,-6.040661,-5.654612,-4.8325915,-2.4136627,-4.0369496,-4.176859,-2.2322865,-2.105657,-2.1691115,-2.6748774,-1.1301625,1.5270627,0.60915995,-0.2570492,-0.10725145,-3.1596036,-0.56077176,-2.7016463,-1.5678595,-1.1609596,-1.99787,0.22870457,-0.84039646,-4.0898156,-3.6645584,0.15259749,-2.614864,-1.2532467,-3.226851,-3.007461,-3.6196527,-1.3508508,-2.5432322,-2.58092,-2.6554103,-4.2715535,-2.5014083,-3.757961,-3.0800192,-2.255604,-2.5219831,-4.02236,-4.420352,-3.596011,-2.2230628,-3.947949,-3.1991572,-0.8722906,-3.722118,1.3635439,-3.591616,-3.8495507,0.3054465,0.9635151,-5.307739,-3.5146239,1.1389066,6.888991,8.598293,0.998199,0.68669426,-6.7711926,-3.6327376,-1.8894271,-1.449738,-5.280848,-6.0281987,5.282368,1.4566665,11.326013,3.2372088,1.817064,10.17752,-1.2728229,3.1784372,1.4149406,3.2099662,2.8096282,1.0692341,-1.8756219,4.218917,3.8919833,0.23998141,-0.901802,1.57007,3.6318583,0.7342583,2.9190834,4.1466045,5.943988,3.1374652,7.5323424,2.9048615,1.6366115,-2.1730316,0.336223,1.9902034,5.2923923,-1.356475,-1.5145038,2.2497358,8.0301485,-0.24343145,-0.65359503,1.8436048,5.7957206,1.1931232,-0.1368233,1.1647832,5.2435107,4.1679325,-0.7457615,-1.4508812,3.7058096,3.805736,5.669198,0.48339564,2.5779672,-1.6547303,7.1117926,1.1889901,2.1660678,7.375162,13.415354,-1.9499679,-0.5431568,-2.8785424,1.5785263,0.2598647,0.9795259,-2.2475867,4.009172,10.705645,-0.56536746,-3.2865024,6.66815,0.83705443,1.9369026,-0.12976074,-1.0778286,1.7205555,-4.7598133,-4.1569686,2.3938832,-1.6847289,2.6842623,0.43055713,-1.166732,4.964249,-1.4237998,2.590848,-1.5460948,4.7442293,0.9575546,-0.07857219,0.7642032,-2.6898437,2.6534758,-1.7122508,6.0909524,1.3488512,3.8812735,2.839289,6.3546734,-0.5333257,1.5751582,0.8670141,-2.809059,-2.4508991,1.5900103,4.5365953,6.9504924,3.3754203,2.8164697,3.9948943,-2.8789413,2.1957924,0.48246133,2.391293,0.46893877,3.5945525,4.4095583,7.4256086,-5.1229825,3.1874998,2.0859964,1.0053399,3.985332,2.808104,4.965724,6.025351,1.5896327,-1.0581613,-0.3302294,-2.2522385,0.8791219,0.85040313,0.4596511,-1.9077653,4.5875225,0.19946557,4.3673315,2.757657,2.0592778,1.8096392,-4.150817,-0.85698175,1.742824,5.6131096,4.1368427,0.21149752,-0.5034394,-4.458072,-2.3712814,2.489569,0.42904723,5.0651007,7.419647,4.786441,0.39276528,-3.5785103,1.0719758,-2.56845,-4.691149,5.008394,4.3778296,4.291588,0.17180803,6.357205,-0.20382096,1.1848145,-0.088827565,4.4073443,-0.8652066,-0.4710453,2.1124196,4.2836056,1.4934261,0.05785781,-2.713785,-0.88497674,1.9017497,1.7916868,3.3286076,-3.5814419,4.932703,6.10482,3.5437407,4.315778,1.9928863,0.6209585,1.2796178,-0.43006384,0.2553916,3.4528773,5.3296056,-1.0103886,1.838698,3.1983728,3.3814914,2.3564458,-3.1226034,1.6406271,1.0066115,2.4248276,3.0484352,5.586727,-4.5448403,15.111558,0.8592522,0.8296292,3.6508482,5.9855967,1.5335871,-0.3657453,6.628356,2.9221706,0.6432314,2.6928618,-0.7543178,2.264386,0.15522647,-0.3882193,-3.0881047,-0.34809095,-0.61013794,-3.2915916,-3.2584507,1.4295372,1.3186922,2.0970616,2.8238578,-3.2972019,2.3847196,8.779167,2.8700294,7.510827,7.0139484,-2.5283635,3.254128,2.1152318,5.994034,0.37554944,-1.0007725,-0.78086984,2.631993,-1.6194161,-0.28844875,3.944673,1.3697665,4.438759,1.2825594,-0.7092579,5.856429,0.5980951,-4.4460163,5.521749,1.9626231,-1.4356732,-0.54540825,2.023995,-1.3520133,1.7789701,-1.229699,1.1160569,8.323282,-3.081656,0.12751478,-3.212841,-0.30822235,2.7676399,3.9715273,4.1226,-3.628527,4.303727,3.5211563,7.083612,3.878337,1.1526476,3.470757,-1.2338792,5.793531,4.138034,-3.2794025,1.6508379,0.899446,1.8028176,2.617234,-4.5979176,3.3136344,4.258065,-0.23886853,-2.0199666,0.4579326,3.0780177,5.431352,-2.9303875,0.41161805,3.4817133,3.273035,2.3568096,-0.8079518,-0.6395824,-0.23086238,2.622301,-1.8794849,0.29114667,2.492375,3.85856,4.014986,2.8233578,1.8835223,-0.4664755,5.557788,-0.56672275,-6.5953317,-1.186898,1.5964692,1.7142599,7.1135225,4.865201,-2.2171996,-0.079849005,5.688965,1.5166509,0.72150123,3.8910413,0.59415865,0.69270885,3.8335729,1.8532605,-2.0070486,-2.3341503,6.0766664,0.7889312,1.2024843,1.8414774,5.389438,4.1707463,1.7032197,2.5730293,0.5845896,-2.836205,0.33861902,2.9701748,5.2723465,4.976199,1.49541,2.1915164,0.059622765,3.9891636,1.0860424,1.797565,1.7900808,2.381929,-2.0421214,2.322704,2.5899458,0.5915692,1.2573845,1.1646059,4.6638045,2.5390124,4.6325583,2.2403898,2.2951896,-0.48734102,0.96600664,1.6267792,-0.4573547,4.8244696,3.4100246,-0.9738256,4.213154,4.186971,2.2786405,5.224565,-1.7609856,-0.18023992,-3.6505275,4.367692,2.164877,1.2738848,2.308588,1.8160404,5.3271995,-2.4013405,-0.63444567,6.4786534,3.2913492,2.2165966,3.129608,-0.6261172,-1.5555043,7.7929497,8.672755,-1.4365966,-1.5644383,0.3387236,2.7897549,-2.8968863,-3.4671612,2.702334,2.35112,-0.07442215,4.2702,3.6184387,1.7840459,1.8921745,0.37180147,-1.3955085,4.2891045,-1.4930855,-2.0921674,0.74763775,0.93269676,1.6514399,2.6520736,-2.6119373,-3.210985,4.7457585,7.6085596,8.25808,-2.6869817,4.871574,5.0983205,6.9312716,-2.918033,7.4611406,3.9651852,-2.634093,-3.249896,8.979082,1.0698453,4.325726,2.9441288,1.5220408,-2.090243,4.0067644,15.605919,5.482466,0.49638373,1.1173576,2.5150714,2.4908423,-4.6278515,1.5901387,5.027807,2.6546779,3.3876588,6.1186075,-1.5537593,1.1011928,1.8767046,2.7735462,1.8841057,-3.8759818,6.9776144,-2.6209352,5.211479,2.189043,-2.5634458,-1.8044207,-0.39940944,1.0175978,-3.768422,8.484866,8.637212,1.0645086,-3.5102248,3.060697,-3.708868,-2.6323707,4.702228,0.43646196,4.829325,1.9712996,4.62657,1.0943419,-1.426729,1.0733669,4.2706394,-1.2573386,10.794878,-2.0061913,8.654663,-4.8280997,2.883232,2.5586612,3.2292001,5.2251277,0.56429565,3.6752255,-0.2707299,2.6452212,0.23013312,5.764812,6.4573517,-0.66472816,4.416277,3.767597,2.986134,0.4880606,-1.1246165,7.9801216,1.2965599,-0.29704309,3.1165202,0.6959581,9.947169,-1.9027712,-2.9144351,-2.6716614,3.3845127,0.15628994,1.4096416,-1.0494192,-2.2576895,-3.5031517,3.9519875,-2.764669,3.317852,1.1875895,-1.0253621,1.8402438,-2.7469337,0.18449336,1.4094363,0.092342526,2.252295,2.6798766,-1.6971462,1.3360862,1.8421434,1.4427531,0.08193123,-0.7415023,-0.32435971,2.535488,0.16971847,1.9448099,0.7888653,0.29935366,-0.834467,-2.3437953,-3.5009246,2.971834,-1.2468679,0.33813995,-0.59069955,-1.5454286,-0.4819334,-2.5516381,-2.663645,-1.5023471,-1.7087476,0.7736603,0.7859125,3.9656909,0.4029951,0.2816713,-0.7619131,2.2497282,1.931439,2.4735944,0.36829978,-0.1915862,-0.9243934,-1.1895769,-0.8022778,-2.3285275,-3.5279946,-3.7449713,0.020021915,-2.7122085,-0.5311694,-2.665729,-5.0383987,-4.7916007,3.9744613,1.6229898,0.12606922,-0.97642875,-1.1495657,-5.4752884,1.5468141,-4.4549093,-4.46577,-2.1917677,-4.813426,-4.4997826,-6.672221,-1.9005713,-2.6258245,-3.0446672,-3.0330062,1.1930045,1.9091442