-3.1892376,-0.42661834,-0.88694715,-1.8323352,-2.054058,-2.0548558,-2.7916045,-1.8461282,-1.2439493,-3.2179244,-1.3113061,-3.3647275,-2.3616033,-2.533035,0.13553864,-1.5104483,-1.7383003,0.7973622,-0.49929237,0.86479723,-0.5185778,-1.0420574,-1.108479,-1.8420186,-3.94874,-2.892356,-1.8236854,-4.8184295,-2.507049,-2.7511551,-7.0814238,-3.2739668,-2.8516386,-3.3762655,-5.8251057,-2.885284,-1.5287136,-0.37223315,-1.3876328,-2.649165,-2.7269673,-2.3068433,-3.9344687,-1.4003699,-0.08638799,-4.7561603,-3.716078,-1.6898452,-0.9278232,-6.3799405,-4.278098,-3.511417,-2.2459936,-2.8759062,-2.2066658,-0.7596795,-1.104331,-3.147534,-4.9003615,-2.7728283,1.5465351,-2.2945824,-3.1218586,-3.1992655,-0.36288962,0.72461087,-1.8741273,-3.3155906,-3.457042,-3.4115996,-0.81442404,-4.090416,-1.0531052,-4.3398876,-2.3179412,-4.1506824,-3.2800403,-3.697478,-2.7172253,-2.890458,-2.3731165,-0.16723228,-2.4526238,-2.554789,-4.7500477,-5.764807,-2.8149192,-2.5656831,-2.9864924,0.6909268,-3.5676527,0.53812814,0.79010427,-0.37476265,-2.0810246,-0.8910272,-2.5530782,-0.242984,-4.6045623,-4.066519,-3.5145504,-4.1254764,-3.4917932,-2.36035,0.0074403286,-2.2159312,-3.016886,-1.8848573,-2.5262065,-1.8885818,-0.9246421,-5.9503975,-1.4682958,1.5259413,-2.3757298,-3.1706796,-5.5626163,-2.253821,-1.6719655,-0.4521674,-1.7207683,-2.30443,-0.31257686,0.06535949,-0.07792151,-0.0324879,0.44976515,-1.2827036,-1.7715919,-0.77684236,-3.848793,-1.2682589,-1.5984774,-1.5847507,-2.5532084,-0.59204805,-4.167107,-0.64142126,-1.3452924,-4.570258,-5.798798,-5.1054134,-2.9778886,-4.1248507,0.17638838,-4.685364,1.9802024,-3.1605523,-2.7996588,-0.621273,-3.5796542,-0.6740593,1.9838898,-2.43496,-2.7644603,-2.7295141,-3.1453152,-2.7679884,-2.396295,-0.8187319,1.4594443,-3.1339116,0.08835882,-0.15453815,2.093483,-2.839336,0.01840292,-1.407601,0.51441395,0.95398664,-2.7987194,-3.394389,1.8813167,2.7637045,-0.08948934,-0.38851923,-2.951055,-0.2302416,-2.094949,1.0978786,0.31730726,-0.49946377,-0.91118777,-0.3580081,-0.37272045,-0.08014655,0.5271988,-0.17561589,-0.69871265,-1.2698708,-0.66508293,-1.7157968,-0.20305309,-2.7694392,-2.4369755,-3.6192844,1.5347158,-1.0184212,-1.0632716,-1.477978,-0.79230624,-4.577206,-3.977588,-2.850852,-2.0954833,-2.8509772,-1.6140835,-1.2379725,-1.6911013,-0.33799574,-1.6805,-1.1832426,1.2549877,-3.8726726,-0.925936,-2.1039622,-2.5497477,-2.2263155,-1.7782251,-2.3869543,0.038059294,1.4022033,-2.232906,-1.9642882,2.1547098,-0.9101441,2.0978389,-0.3595031,-0.14728907,-3.6396213,-3.329805,-4.58901,-2.2461004,-3.1939657,0.93702185,0.10945287,-0.1053898,0.46387696,3.176958,-1.9546808,-1.4469883,1.7122002,-0.9230591,-1.3277451,-0.9046722,-1.8275023,0.10157731,-1.4500151,-3.3718712,0.71860266,-1.7327248,1.0256655,-1.2334818,-1.2967118,2.0122108,0.67083746,-1.5020792,-1.5598434,-2.383945,-4.519688,-2.951404,-1.872148,-3.2731793,2.8651276,-0.72798425,-2.2012405,-2.1006055,-3.8350713,-3.347868,-1.1402457,-2.2882674,-2.3897085,-0.57411015,-1.429573,0.011897311,-2.0501556,-3.6177542,-3.680438,-0.2711112,-2.7505107,-3.3361387,-2.844905,-0.4032836,-3.4574547,-1.2462509,-0.39717177,0.7812765,-1.9386504,-2.2465377,-4.257053,-3.5270002,-3.6512375,-1.8281224,-2.9790702,-2.5856597,-4.2249327,-2.2035737,-3.3909245,-4.692964,-4.332627,-1.3247871,-3.5294523,-0.84857845,-0.86844844,-2.1245172,-3.37817,-1.4856107,-0.9913922,-1.8376744,-1.6776432,-2.487983,-1.2483459,-0.2955153,-1.1697428,2.9201975,-0.55503345,0.908846,-3.006783,-3.182191,-3.040736,-0.49479014,-1.1320658,-0.61905885,-2.6587496,-1.9462098,-2.5138721,-0.31557953,-2.7860897,-2.1925383,1.8674624,-2.6293788,-3.6905894,-2.229666,-1.2741709,-1.7769456,-5.481185,-7.1091466,-4.6176305,-3.493533,0.7624327,-1.3056384,-3.0207133,-0.9261817,-4.048587,-5.3345942,-4.6944056,-2.9075856,-3.3443308,-2.3578386,-2.4929197,-1.1839945,-1.6872518,-1.4388435,0.26603508,-1.3573048,0.5881158,-2.621889,-0.9868351,-1.5437608,-0.039208762,-2.5465314,-4.230205,-4.5563374,-4.7726235,-1.7297626,-4.336608,-3.57074,-3.1991887,-0.9224479,-3.0776362,-0.01343137,-1.4804993,-1.3150512,-3.266338,-1.9419248,-1.3119872,-3.7539794,-1.6471533,-2.1423373,-2.4929974,-2.9446995,-1.2884235,-2.1039755,-1.0393441,-2.4062421,-1.9459682,-2.634109,-3.2840939,-3.3157299,-4.4321747,-1.2335628,-3.102037,-0.38680518,-0.9235253,-1.0579993,-2.6231017,0.7219537,-3.6872787,-5.4869976,-1.1591048,7.4497595,8.990831,2.0960045,2.5610645,-5.472164,-3.3320088,-2.344942,0.19248062,-1.9411368,-3.472596,1.9032358,1.8636765,6.3691425,2.0242026,1.7615845,11.096366,-1.0556976,-0.38586414,4.6824093,4.151118,4.189098,1.2987293,-0.9052316,0.99155116,3.1444547,1.2248404,2.1358035,0.3075531,1.240781,1.9059609,1.5432645,1.9152747,4.1355214,2.5367916,7.333359,3.4052274,1.7618527,-0.23488052,0.09586334,2.904525,7.9782386,1.6877798,-0.20620091,-0.11819391,4.607922,-2.253046,3.97787,2.242094,3.8627968,3.0389948,0.38229442,3.0786014,6.407741,6.441182,-0.07835144,-1.0739803,2.5687006,4.506454,6.021893,0.48414433,4.6311946,-1.7912526,3.882802,5.247445,4.1950355,5.9302654,5.7591043,-1.4609951,-2.4155188,1.0785844,1.3047101,2.0697827,-1.337528,0.7975123,2.287716,7.375207,1.286715,-3.5759473,5.5903826,0.8556057,1.5904375,0.8509337,3.0579188,1.2926257,-3.783773,-2.8248024,0.8636637,-0.4819597,3.7622638,2.6668541,0.3680259,2.989791,0.3138499,1.8765489,-2.0230367,2.6070256,-0.95496154,0.6457178,1.7820789,-2.5284104,2.9003847,-3.0810869,7.864586,3.5585568,3.3556857,0.88076615,4.1824207,-1.1016269,3.2297285,0.6403944,-3.8150024,-2.2462058,-0.538547,5.299529,2.2903273,2.6254067,5.6164603,3.4225433,-2.5091302,5.9793296,0.18542206,1.6623458,-1.9812934,3.658127,5.0770454,3.7702498,-3.901785,0.019378386,1.602665,-2.306787,4.1836624,0.33797908,3.426093,-1.2838956,-1.6854594,-2.2423582,-0.15948296,-3.1904244,4.7068815,1.2648042,-0.49845648,-2.4528656,3.3342052,2.386709,1.7137578,2.6354668,2.2897134,2.5271847,-0.24603605,-2.2332842,4.398616,2.9074433,3.2045522,0.089337766,-0.09644365,-2.7424712,-3.1205394,0.61384624,1.0495659,3.8896556,2.697867,3.262487,-1.5192869,-1.2818961,2.3679016,-3.5047696,-1.6976385,0.7022866,1.9643586,3.9890351,-2.2311008,8.581973,0.77517676,2.3160667,0.6494641,3.4516368,-1.3470119,-1.4426523,4.086229,3.1262162,0.18635607,-0.12293908,-1.8356466,-0.84844184,3.609568,2.6665115,1.818847,-1.2205096,3.102931,6.3758736,-0.14682257,3.74287,3.8938134,0.91577816,3.5211864,-1.1979706,0.058911324,2.2876875,5.0055337,-1.6885858,0.78541756,5.055377,4.6586127,2.1316712,-3.460005,5.7147117,5.619032,3.5293171,2.7178385,3.7743316,-2.6404705,5.7525973,1.1756678,2.6751757,4.4257097,8.214385,3.7459466,1.3457001,8.445406,2.918326,0.68755484,2.26351,0.042836905,2.7529316,1.3632085,-0.0643934,-1.1269361,1.4332061,-1.8304532,-1.973619,0.91291326,1.7745214,3.3519952,3.6726656,5.941322,-0.9560152,3.5172179,8.316455,2.4954197,6.1258664,4.182952,-4.2802687,4.419352,0.27421278,8.326722,1.3497443,-0.41623557,-2.0112014,0.7356933,-2.6335125,-1.610286,2.7383044,-0.31743824,7.803343,-0.9340766,0.36196673,3.8790016,-0.17989747,-2.068139,3.521917,1.8715158,-2.3709517,-2.3108597,0.8486886,-0.821107,1.6650944,-2.5026798,-0.57492936,8.767041,0.5339681,0.2560852,-1.8234214,1.1991671,3.3365295,3.6685176,3.4312043,-2.8404837,4.029021,2.5262384,6.279397,1.1532692,3.664078,3.7518058,-3.281908,3.2226214,2.5611799,-2.1004052,-0.49549693,-1.4267715,1.2606449,3.1410298,-3.26472,9.314197,3.0903478,4.0085645,2.0671105,2.5939946,5.76689,4.415023,-2.497184,2.1854475,1.4614475,2.8979478,2.3529608,-1.5278844,4.816081,1.014746,-2.4004796,-1.1990075,-2.2461963,4.2685795,4.7422643,6.2354403,0.78180957,-0.5682047,3.7738204,6.1713862,2.127722,-4.4060817,-1.2066705,1.3320662,2.1029062,1.4580917,4.367427,2.411104,0.6011212,1.9687791,4.3964615,-0.01166451,3.3336496,-0.89934397,-0.36510837,4.9770975,2.268454,0.69105464,-2.5156112,5.6996164,-1.4397557,1.9990706,-1.6943243,3.3229647,0.5209865,0.59400177,1.2508847,1.823628,-0.68372715,0.6313444,5.523714,3.077703,7.0332336,3.2264667,-0.27352697,1.0364282,2.8747292,0.39917764,1.8624282,0.8061195,-1.2277017,-2.9747005,1.1646515,4.809414,-0.57759964,2.3734517,-1.47133,-0.09760997,4.363596,-0.44776613,-0.17853373,2.2932804,-0.11461854,3.9550483,2.4395335,0.85123277,3.6072009,-0.5200697,3.3613276,5.303143,1.9091086,2.7158222,2.651854,-0.006015718,-1.8525016,-1.9161562,1.5974598,0.62671345,0.5144415,4.3190413,-2.49929,5.748461,-1.1909927,0.6895715,5.2473454,-0.35836834,6.1129656,5.899529,-0.02715075,5.5558605,9.682055,5.3784733,2.0036836,-1.374769,-1.5821519,4.311192,2.6393218,-1.3893853,2.1024694,1.0770786,-0.2469948,2.829804,5.788944,1.8493507,-1.7070949,-1.7307222,-0.9729373,4.051867,1.1084546,-1.9634669,1.6608554,-0.0711447,3.0982394,2.322341,0.9142847,-2.7848058,3.799034,8.561772,7.256722,-2.9855251,5.149304,-1.8930128,4.1480355,-0.78179985,2.9377704,-1.470981,1.4002992,-1.7788615,4.7222877,-0.12782753,5.6567297,4.6138306,3.402214,-0.21089613,5.074752,10.418394,6.244722,0.28754097,2.5057912,5.034251,1.3946364,-1.767761,2.5045853,1.6988826,2.3482869,3.3270404,2.8968067,-1.5504155,0.59993845,-0.89987373,-0.18279147,-0.08342165,-2.9505239,1.7643998,-2.508508,3.3682885,1.5935953,-0.8840184,-1.820359,1.5127977,-1.0399971,-3.3714035,2.998553,8.522295,0.5841621,-2.2610745,3.4311798,-3.8290856,-2.429221,2.5125234,2.2504263,0.61491233,-0.5296889,3.9617803,1.1767201,-2.069744,3.1031888,3.753677,-1.145138,10.574464,-2.6455646,9.1322775,-1.9235704,0.8186097,2.97068,-0.58060056,1.0592451,2.3327184,1.4579495,1.4829086,1.3183882,1.2760699,5.5731187,4.401803,1.2078476,2.3979475,6.0814195,5.2768564,0.09235716,0.03360641,6.8872805,3.9602728,-1.6554482,2.9505715,3.096223,8.0722,0.87268156,-0.046675906,-2.6434412,2.6353018,2.216052,2.2303128,3.0176935,-1.2323681,-1.4872121,1.9142959,-1.081622,2.9361467,-0.05338627,-0.51693934,-1.1237957,-2.2952993,1.172075,1.1157622,-0.74404883,-0.18313912,0.35406983,-0.2206384,0.30534244,0.07363105,3.073409,-0.77015203,-2.0389776,-3.5558133,-1.6084208,-0.8689742,-1.2326852,-0.4772043,-0.36370215,-0.81013983,-3.8582735,-1.6379404,4.300952,-1.0609584,1.2927778,1.4906119,-0.6857479,-0.7490349,0.61184597,-1.5631199,-3.2267354,-0.92699534,-0.7663281,-1.5998998,4.9494658,-0.8237728,-2.1066976,-2.685582,-0.32502213,0.14456612,6.833767,3.4981284,1.3754957,-0.380043,2.252982,2.1422772,-1.0055385,-1.8196669,-3.8572311,0.44027942,-3.7130768,0.23160994,-1.3471181,-3.6036534,-2.4670897,5.7862782,2.0799773,2.2215176,-0.5561304,-0.7439918,-2.476621,1.1047767,-2.751243,-2.9789486,0.49313438,-3.797008,-4.7877398,-4.658771,-1.3729008,-2.1318545,-2.1675367,-4.3395452,0.6940774,1.2903719