-2.9491673,0.49903598,-4.4491034,0.6268202,-1.9556576,-1.0909388,-1.4945245,-1.2236202,-0.6185296,-0.29524094,-1.9009104,-0.9512335,1.1327518,-1.7783653,-0.35129517,0.18778358,1.7027473,1.96445,-0.8059803,0.2568697,-0.7295356,0.87052095,5.262128,5.1187086,3.2804306,0.5172085,-0.8556562,-0.29156566,-0.6788531,-1.7200167,-4.8157125,-3.2805824,-2.0915408,-1.7419845,-0.14880347,2.4331267,-1.7757397,0.03661204,-3.2832737,-2.465581,-2.9756663,-2.4354806,-2.725233,-2.038746,-4.054685,-2.1895194,-1.4540882,-1.2201688,-4.165174,-3.8108106,-0.84030247,1.4330797,-2.782936,0.61119914,0.20527685,0.13486427,-2.0824194,-2.4181592,-3.0319068,-3.2500103,1.4420229,-1.408516,-1.8762136,-2.685252,-0.72084224,-0.1930908,-1.6210431,-0.53582346,-1.3582333,-0.81663334,1.0653436,-3.3705747,0.03371075,-1.2523793,-1.2189071,-1.7148111,-1.9341958,-1.8761132,-1.9556215,2.6761875,0.86326295,2.4284487,-1.5626674,1.8968544,0.15275002,-1.4849405,-0.15658975,0.43341726,-0.12670083,1.2549939,-2.088009,-0.16963035,3.7967486,-0.048339635,1.5757776,-1.1573441,-2.055954,3.712577,-1.8354074,-2.2826715,-0.5466174,2.2510571,0.0020774603,-0.2590488,-0.43712914,-0.27902144,-4.375601,0.39380386,-1.5620295,-1.898047,-2.7238894,-0.27892664,1.531308,0.8152038,-2.0291834,-1.7068843,-3.0916088,2.305314,-5.1205306,-0.25177968,-0.16373885,-3.242923,0.12906137,-0.65366274,-1.3160648,0.39278036,-2.1550028,3.5933216,2.894501,2.5346775,-1.9425982,-0.4384055,0.22218382,-0.24595898,-0.97879565,-0.7030152,0.13719964,1.41914,2.1500254,-1.3823532,-1.7938012,-2.08169,-1.2796606,-1.3911276,4.340062,-0.8697219,3.570385,2.3833654,2.299186,0.13432395,0.61760294,-0.78655934,-0.6000186,-1.2191185,-1.4978589,-2.2319946,-2.9760141,-2.0644484,-2.1548193,-2.7518287,-1.3654323,-0.056603283,-0.7222679,-1.3275203,1.356371,-2.7319665,-0.17999892,-1.7039238,-2.0172148,-1.9354694,1.2201099,1.4666563,-1.8452791,0.07876323,0.69420993,1.5984148,-0.29931384,-1.825665,3.1135468,0.59358734,-1.9370652,-2.750677,1.6292901,0.2901402,1.5289813,-1.2063289,0.48604304,-0.43019313,-0.3783533,-0.61725575,1.082083,-1.074146,0.15978867,-0.57418275,-1.5369403,-2.2829733,0.64001465,-0.7015446,0.28790674,-0.92406875,1.5789319,-3.0780885,-2.3540802,-1.3449818,1.0322767,-1.6349363,1.047307,0.7143595,-2.3508484,-0.0737946,-1.0934975,-2.0793304,-0.5698956,-1.6511832,-2.7421813,0.7050936,-1.5113089,-0.6395526,-1.0248493,-2.0083184,-2.783665,0.18492895,-0.78288674,-1.1941974,2.370564,2.1119602,0.44824117,1.3181136,0.02610147,-1.0423911,0.3601008,-2.0985532,-0.6474123,-1.0821793,2.966732,0.81913745,1.170217,-0.4577552,-0.8612817,-0.3866914,0.6887428,0.44081828,-0.71477467,-2.1829348,-3.392755,-1.5004956,-2.646992,-2.696575,-0.9318238,0.19841152,1.0192323,-0.591466,-2.6618729,0.5656807,-2.39334,-0.6912562,-0.4075478,0.36133778,0.09440678,0.6494601,-2.3507864,-1.7514958,1.4876045,0.620878,-1.4365082,-1.3595039,-1.524372,-2.0778608,-0.2196492,-1.4590507,0.5551931,1.652026,-2.4347436,1.0937144,-1.7110045,-2.5717611,-2.2439277,-1.9941236,-1.4532169,-2.6485217,0.096102834,-2.315164,-0.619701,-2.203866,1.681128,0.4754266,-0.22266634,-3.072182,-1.1940839,-3.210741,-2.879359,-4.8080397,-3.4127884,-2.2793956,-3.673924,-1.67644,2.885371,-1.9508615,-0.5163939,-2.3317919,-1.3749473,-2.055607,1.2258472,0.66091394,-2.0005739,-1.273617,-0.24300957,-1.6647518,-2.0615745,-1.5854665,-3.5322094,0.028881729,-2.6868603,-2.8434815,0.14352071,0.83294886,-1.200736,-2.231722,-1.5709661,-1.0484464,-1.0403991,-1.8933566,-0.20314622,-2.6010222,-4.022288,-3.3197887,-3.1376941,-2.4050422,0.094073474,0.52207375,0.4178207,-3.0900483,-0.9681117,-0.06313646,-1.042116,-1.3352333,-3.3377862,-0.8951661,0.1640195,-1.8545873,-2.043855,-2.5458739,1.1344948,0.090639144,-3.8423479,-1.7215236,-0.8024086,-0.7067313,0.34160066,-0.38966614,-0.79774725,0.6245713,-2.3416348,-2.6097288,-2.555092,-0.7324204,-0.583566,0.0629534,-0.0043053627,0.07921491,-1.0074174,-1.6281227,-0.15845644,-1.4090946,2.1406407,-1.4015834,-3.9716067,0.38290462,2.1555734,-1.8564165,-0.63972044,-2.1217527,-1.5973934,-0.6368327,1.3727653,-1.6323272,-0.6646781,-2.4411192,-3.9966898,0.4975257,-2.3922122,-2.1266615,-1.6157603,-1.0770872,-1.8962584,-1.8477652,-0.7360967,-2.0363727,-3.1964793,-2.554558,1.232556,-1.000137,4.124606,0.32816255,-0.51956606,4.324266,2.1145246,-6.8496737,-2.2970278,-0.0024488568,9.008948,7.26685,2.193065,0.14346552,-0.6477577,-0.067622066,5.3507338,-2.0023174,0.7092794,-1.078892,1.1470927,-0.0632633,4.082747,0.9642613,0.8360187,5.8444624,-1.1584826,0.81360394,5.222808,2.9301558,2.0723805,-1.6200643,1.7875395,-0.81657755,0.16256863,1.0594414,1.8842368,-0.9551111,2.0456378,0.52347505,-0.24199452,-0.19216356,2.5911958,0.60805565,3.740344,2.5627642,3.1683085,-2.3532462,2.2643843,-2.1206975,5.7225595,0.39152566,-2.2406254,2.3394282,1.9982771,-1.7211344,0.47335058,0.59908664,2.986911,2.1122322,-1.0506506,4.3203053,2.7813928,3.1804807,0.80286837,0.3371675,-0.27430403,2.0400603,3.8305552,1.3854629,0.15445769,1.3396281,6.0383058,2.4464903,1.1873765,4.97472,6.9191294,1.0619001,-0.6914173,-0.5671296,1.0056589,1.1920244,1.1546669,0.9978126,1.7898481,7.040693,-0.68243456,-4.9156213,2.620255,1.1701875,3.5966744,-0.11941016,0.8281981,0.44479734,-2.2992077,-1.2851105,-0.44288942,0.39045793,2.7690842,1.7348436,-0.9504205,3.5815737,2.7658162,1.6249658,-0.9998141,4.384582,-1.2255099,-1.9868515,0.24102747,-0.26692057,4.126363,1.4350723,9.292337,2.0391176,0.8199837,-1.0926234,-0.47973058,1.7239226,-1.1236459,0.7649852,0.069407344,-3.2476125,-1.9479699,-0.24114507,0.72993684,0.80696774,4.870302,1.4247584,-0.09274921,3.2951546,0.25436956,-0.77829707,-1.9789739,1.1116686,3.7759151,6.6645494,-3.3671918,-0.36334178,1.1975764,-0.82031274,-0.81426895,0.4415394,2.4912722,0.700045,-0.7451578,-2.4636743,-0.37173823,-2.1555047,1.4418532,-0.26381335,2.8420393,-0.67563915,1.4328223,0.3378811,0.31250083,-1.152729,2.5245612,-0.54804283,-4.098043,-2.156588,-0.37439966,-3.350317,-0.3092991,3.9654098,1.0265554,0.33496034,-3.9115698,-0.025874496,3.7907262,1.5413884,2.2381516,-1.7931681,-2.1875541,-0.49430484,2.943829,-3.377006,-4.156927,0.7889417,-0.64956075,9.50315,-3.4515986,5.612072,-2.7288036,-1.6812081,-0.19452432,0.5157601,-4.399589,-1.837687,1.8398438,3.4052088,-1.3553274,-2.683971,-0.9511316,-0.7831634,1.6299287,3.8527172,0.8184437,-0.47448868,1.3128756,1.7431161,1.2962532,1.0789034,1.7992833,0.064937055,2.0118468,0.5042912,-1.246572,1.1942343,2.744462,-3.5134125,1.8090997,3.2638335,4.383143,0.5476665,-3.3976815,-2.151363,-1.9800919,3.2627435,0.43920687,5.089678,-2.6703458,4.9779024,-1.2757514,-3.6929078,1.507256,3.3782477,5.574557,2.1693583,5.9449167,-0.32895112,0.2625616,0.23147142,-1.5825965,1.2113746,1.3136444,-1.0561833,-1.034585,1.3839803,2.7856696,-0.12260741,-0.5666144,1.3897449,-0.42601183,2.0773165,1.2281928,0.9530777,0.04360962,5.149165,-0.8820535,2.0107546,1.5793078,1.2766142,0.16276151,1.6344645,5.0371733,0.731574,-0.6536298,1.8304455,-1.8341334,-0.7520323,2.5720842,3.2869859,-2.1805437,5.5399914,-0.7904112,-0.04795669,3.1280751,-0.5471007,0.80921614,2.4093523,-2.428117,-1.5227813,-2.6473353,2.0225506,-0.7877835,1.0946225,-1.8845571,-2.5751536,7.3730545,0.043419003,-1.4915409,-1.7413154,0.35781667,1.9113787,3.8096263,-0.38168335,-2.8824317,3.4793854,2.2250996,3.9944935,1.985108,0.8909327,1.6620594,-0.4888307,1.9432726,3.749973,-5.0691986,0.045632124,-1.001324,0.71462375,3.7734356,-4.9528365,2.7281883,0.36207342,1.8199041,-2.5697503,0.49713227,2.0736516,2.9221027,-2.0043895,3.1157038,0.9063059,6.892449,2.0996168,-0.35404396,-2.196713,-0.16883385,-3.190187,-1.5320659,0.62530804,0.9027492,0.60020125,0.7536223,0.6973277,0.304348,2.8650208,5.1815495,2.2411304,-2.3178267,-0.95031995,-0.99768955,2.3624926,1.0680969,0.2002405,-3.9290051,-1.4737909,0.40634006,0.7279655,0.31022298,1.047851,1.1049585,0.021737874,1.6851848,-2.4054554,1.4151474,-2.585474,5.8979716,-2.5177832,-0.44579816,-0.4484591,-1.820631,1.2877924,1.2467456,0.84355366,3.289407,2.2887776,-2.2180455,1.9957954,2.8677607,2.9467063,4.368761,0.5724463,0.5952743,1.1123855,3.4561398,1.1131176,0.35894185,0.0022563636,-2.5108533,0.89196634,1.8702062,2.6440158,1.5645561,-3.702563,2.5032144,2.848707,0.87089044,-0.43162942,0.2381137,1.3127756,2.099493,0.6850635,-0.72538507,4.31882,-0.29477963,0.066634774,2.950864,1.79255,3.4381006,-1.1584722,-0.64619285,1.3299165,-0.82878673,0.9679418,1.7710704,2.9968517,0.5179519,-5.7717075,3.079421,-0.68626916,0.14013115,0.10331833,-0.9966596,3.2938094,1.669261,1.7509284,4.5110726,7.859067,9.310435,0.77706194,0.08780831,-2.737163,3.3533862,4.1583896,0.34231532,1.6642122,0.9266374,-0.11242914,4.4328537,1.9091755,-2.4985673,-0.69308954,3.5399177,2.8779335,0.93337476,2.3268738,-1.2941152,-1.5921748,-1.1642684,2.7370496,-0.88113487,-0.39112234,-2.143386,1.8394542,3.015867,9.173263,-1.8798188,1.3861265,0.20542955,1.2024746,-3.2261453,4.6140566,0.94910586,0.9269897,3.62616,7.854681,-2.3724136,4.176288,3.712947,0.053557515,0.16674823,1.3831655,8.518866,4.0379887,2.3205204,2.1776843,2.84724,-0.20657097,-1.9270353,-0.523199,-0.8602751,0.20771927,0.70666933,1.0138952,1.2703073,1.4281477,1.647189,-1.3167527,-0.8223123,-1.2268487,0.8582721,0.9445781,-0.43826103,0.9424069,2.5021927,-2.8120008,1.3148973,-0.4625798,-3.0471663,1.1756887,7.0370617,-3.4615738,-1.4377892,1.2266605,-1.0872344,-4.0171638,0.79721844,1.3116262,0.44330055,-0.31609893,1.3965672,3.1330209,-1.7976055,2.386839,1.857689,0.52226007,7.5293455,-0.62197655,3.9879127,-0.1488316,0.4393611,-0.60182226,0.7368701,1.7148545,0.26443672,4.4187107,3.9938014,0.8653667,-1.7667902,5.4458947,1.3537533,1.1264325,-0.50623727,3.9617863,4.9588695,1.133841,3.009004,5.693988,0.8373579,2.3869257,-0.681468,-0.75307244,7.0694094,0.40440407,-1.6319087,-0.40495253,-1.3758459,1.9066329,-0.4165132,-2.8037164,-1.2871839,3.1203134,1.7528263,-1.2628495,0.015550315,-2.79181,-5.512812,-3.2759683,-4.599754,-3.497118,-0.22317946,-0.38548556,-2.5926113,-0.36209905,-4.483962,-0.079140216,-2.8085217,-0.20983958,-1.8276141,-2.4837103,-0.16597337,-1.3771089,-1.1804166,-2.9073784,1.2368183,-0.48979816,-2.3248909,-2.8331642,-1.9984815,0.30198395,-1.3667142,-1.7437558,-2.4851873,-3.30603,-1.3627443,2.1286402,-2.1063643,-3.0836687,-0.59067273,1.2022771,-3.7621162,0.06079489,-3.4783704,-2.1611824,-2.585658,-2.8973007,-0.22566894,-0.077751756,-3.4118452,-1.2050902,-3.9503171,3.3398013,0.6779937,2.0181117,-0.6994569,-1.1382971,0.61466646,-1.1305575,1.6273472,-0.86732054,-1.3816755,0.9979814,0.8073745,2.209903,1.6582743,0.69147563,-1.8489105,-2.930907,3.60258,-1.4430169,-2.1022527,-1.150091,-3.4650989,-5.6776347,-5.1320896,0.82081026,-1.7735369,-1.5069904,-5.797838,4.7382774,-0.45690358