-2.9907985,0.05612743,-5.314766,-1.5148094,-4.563749,-1.5527687,-2.241396,-1.9313891,-5.687403,-4.8148503,-1.8755733,-4.157529,-4.1264896,-3.201356,-4.912966,-2.6343453,-4.1197953,-3.1078157,-3.3053756,-3.6768584,-1.7415148,-2.2767694,-0.96001637,-3.4754593,-3.5452266,-4.6736608,-3.524668,-3.9363089,-2.483714,-2.0087144,-5.673087,-3.563959,-3.397129,-2.576258,-2.8488836,-0.63724256,-1.7354672,-0.5139029,-2.2169545,-1.975825,-4.1039686,-3.6791806,-3.9396586,-3.6266625,-3.840282,-4.469023,-2.4792378,-3.738181,-1.9551109,-4.808528,-2.1412492,-1.3782043,0.25787008,-0.33038402,-2.1954508,-0.56559247,-2.5991836,-2.995857,-4.8917446,-2.9404485,0.33438832,0.026979566,-0.47739387,-0.12554449,-0.68202114,0.44041187,-3.4059362,-0.859236,-1.6379194,-0.4736879,1.0614145,-1.6407455,-2.4480762,-3.3946984,-1.1863168,-3.6865876,-3.8512754,-1.2367742,-1.6891115,-0.19802044,-0.9560279,-2.8677235,-3.540185,-2.035445,-3.9497044,-8.000051,-4.168222,-3.157738,-2.634577,1.0876305,-3.9406166,-2.777893,-0.36059812,-0.9755971,-3.3930206,-2.9955187,-2.5702095,-3.6293156,-6.8895693,-7.024783,-5.400901,-5.3804507,2.0752563,-1.3629317,-0.6828413,-1.2472789,-3.4249203,0.04219258,-1.5723542,-3.044982,-1.450788,-4.444099,0.24246657,0.604323,-2.8220568,-3.2594376,-6.0792675,-0.7753809,-4.142398,-0.15013134,-1.6799606,-2.6117556,1.0301591,1.6461376,1.1782105,1.013077,-1.8153086,0.26351243,-1.4230092,-1.8276696,-0.81723714,-1.3335218,-0.81931967,-0.4121216,-1.6586436,-2.0418923,-2.318384,-5.094099,-2.2386394,-4.9694843,-7.593418,-2.9731452,-5.1580315,-1.6106465,-3.1616902,-4.337207,-1.299805,-3.678642,-1.5102544,-3.8886495,-2.9685645,-2.4796915,0.5384004,-1.7244312,-1.6037734,-2.0519996,-3.4579308,-2.2490108,-0.9579348,-1.6833097,2.8004112,3.4778867,1.7835891,0.058260143,3.5002534,-2.3679543,0.123672694,-1.0036557,-0.10235417,1.3181623,2.0381277,1.3539001,0.0279212,2.1330552,2.3810396,0.83816993,0.94307095,1.3710396,2.6638236,1.3741995,0.17169178,-0.787243,1.6865726,-1.7038007,0.54931605,0.8749029,2.4660463,1.8961825,-0.88856375,1.078493,1.6343611,0.040812075,-0.13294277,-2.0502834,-0.2694286,-0.6714257,-0.2612471,-0.97027475,-0.2308669,-1.6780179,0.05428356,-1.5491204,-3.2517886,-0.1794908,-0.051283926,-0.89758635,-0.17406145,0.8202698,0.68418324,0.8778647,-0.49431914,-0.24428207,3.015875,-0.4610753,0.6302247,-0.811234,0.58762723,3.020027,-0.90340126,0.9049981,1.1749849,4.127654,0.82461905,-0.51115763,1.1475959,-0.20087132,0.7269207,1.6077077,-0.4052239,0.69844306,1.5819713,-2.4212708,-1.6204844,-1.1985612,2.968847,-0.3209716,-0.017445058,-1.3065637,-0.6517455,-2.6716833,-2.0446312,-0.58331037,-2.3392682,-0.9761665,0.7972541,-0.70714724,-0.34668937,-0.012340546,-2.3897905,0.41644454,1.2778312,1.8608881,0.08505869,0.21982914,0.083450675,0.7084214,1.8255894,2.6046038,-0.016121864,-0.786649,-1.9723549,0.6315221,0.13233341,1.1668432,0.608933,0.82415634,-1.034338,0.42447147,0.37127805,0.09166765,-2.1241405,-0.7509953,0.1368613,-2.0349755,0.19002269,-1.8182935,-2.5093358,-1.9431318,-1.545442,-3.43269,-1.5784585,-4.6683373,0.66815126,-0.45697927,1.1571336,-0.7106378,1.6500015,-1.0829316,-1.5146587,-3.1658912,-3.7009702,-4.1869764,0.95708823,-0.3996962,-1.1930614,-3.213705,-1.9079072,-2.0891552,-2.03259,-3.1156056,-3.5332408,-2.3577526,-3.180357,-1.2208079,-1.8308487,-2.9342108,-1.4197545,-1.2332295,-2.3611178,-2.5369544,-3.449644,-0.8022258,-0.761985,-0.6191696,3.8274314,0.4718857,-1.2065341,-3.4171956,-1.9875237,-3.1100855,-0.9439158,-2.3258543,-3.3268697,-3.3354468,-3.2251186,-3.108635,-0.052060366,-1.3607901,-1.372796,0.09254253,-2.5638716,-3.1942396,-2.1936746,0.0317322,-1.8794507,-2.887232,-6.3873053,-4.2289147,-1.6449884,-0.04003167,0.65360403,-1.4223311,1.9167833,-1.5892539,-0.23999847,-1.2953622,0.32446098,-0.6395893,-1.4616448,-0.64628386,1.0644062,-0.31800508,1.5878977,1.4818832,1.6463146,4.3803034,-1.4377677,0.23194675,-0.68569386,-0.051850893,-1.3289931,-3.6138277,-0.66631997,-1.7947855,0.57384753,-2.202952,-3.0583403,0.04408014,0.97089934,-2.4263,-2.566401,-3.9462192,-1.1523852,-1.7617941,0.47197592,-2.9264948,-3.88612,0.21662016,-3.4864683,-0.2243399,-3.1083415,-1.2223461,-2.9162695,-1.7360382,-4.196227,-2.4098532,1.8091078,2.2223558,-4.2830887,-4.3725615,0.06916058,-2.8299813,1.5920277,-3.8451161,-3.147663,1.5434568,1.9895446,-6.3405194,-5.3019633,-1.6980466,5.366279,3.232643,3.440501,-0.02927729,-5.8259125,-3.791397,-1.7950693,-0.59728616,-0.048575737,-3.0192904,2.2103386,3.2349532,4.2896547,0.2337619,1.697613,7.033147,-0.5651963,1.218971,3.0816836,0.80725384,3.5528417,-1.6414542,-1.6546124,1.3674693,1.9287503,-0.065603614,1.0966965,-0.97121024,1.1253341,1.9693984,0.78360206,1.5399868,6.1533704,4.6365066,4.671106,3.6197345,2.8037043,-0.9048745,-0.62486553,-0.07100004,3.634263,-0.07618737,0.3020163,0.3488424,1.5012835,-2.1098912,1.0710738,2.4233065,3.9596705,0.057928383,1.3284252,1.3368019,6.332813,1.5337689,0.77016485,1.1879338,3.2077792,4.7145877,4.8451605,0.19807196,2.5257618,-2.3196664,3.7256587,4.4345403,2.187497,8.905532,7.1177063,-2.8130968,0.8730293,0.81518865,-0.90642357,-2.1597617,-0.827655,0.9538106,1.9433606,9.105515,-0.48339745,-3.8346372,4.110926,1.279297,3.139291,0.18814814,1.406005,0.64410704,-5.435493,-1.6096563,-0.73043716,0.9135029,2.6501575,1.9580073,0.45051932,3.7670348,2.7583137,1.8144524,-0.15256321,2.7389293,0.73896194,-2.0246525,-0.94446117,-1.3945323,1.9492638,-0.90806484,5.598606,2.9530137,1.5306867,-1.302664,-0.14640626,-1.4292703,1.2079575,0.60775065,-1.6151512,-2.5415173,0.69204736,3.3756127,2.2906995,5.065621,2.754755,5.7616987,-1.4899669,-0.088326395,2.7585258,2.7295551,-0.8645465,5.239747,8.596364,4.9561977,-3.1366394,-0.42788216,0.5327109,0.3639242,4.101782,0.88817734,2.9952068,0.544583,-0.7425467,-1.2559371,-3.369648,-2.9399612,1.9351133,-0.47291765,4.32057,-1.2603157,2.1785383,2.1687407,1.3666153,-0.52454966,-0.70061874,-0.7953294,-2.5073373,-1.393031,1.8739672,-0.14872205,3.7073298,-1.0918576,0.30429977,-1.5401299,-1.6535708,1.3451993,-2.0931485,4.7708993,4.6409497,-0.25597423,-1.7634786,-1.5134398,-0.6353528,-0.8503957,-1.3181205,0.74687576,0.5432313,6.8966656,-1.3350706,6.7133617,0.6580205,-1.8130636,-1.304372,4.1967154,-1.6137819,-2.187151,3.4662385,1.0993667,-1.1819663,0.45225954,-3.1048217,-0.24027932,2.9068415,1.7310158,1.5320024,-1.8631321,3.04665,4.6257734,3.748819,3.31921,2.8615985,-0.442303,2.4770188,1.1011411,0.12235999,2.992263,4.6733665,-2.3865023,3.6525023,4.085536,1.5560396,1.8934078,-2.234867,1.4339925,1.0108595,3.0210547,2.6805983,4.943521,-1.6597373,7.235655,1.109627,2.6906672,-0.35935354,3.253294,4.2431884,0.24297047,5.4662886,0.71166766,-0.79626095,2.1538856,0.4491964,-1.7954727,0.58681643,-0.88042766,-0.50220805,0.022423267,-0.7627425,-4.734067,-0.61620903,2.7279592,0.24380466,0.29284298,3.0240319,1.2035036,0.32333666,7.808971,0.97013986,3.4520035,2.5560424,-1.0904593,2.688499,1.8516208,5.257712,0.21555936,-2.2614877,-1.0952069,-0.77613395,-0.7836752,-0.63876635,2.3927484,-0.7921988,4.742647,-1.6124067,0.5648402,4.886877,0.096343756,-6.2891483,5.54647,-0.059234083,0.075692534,-2.5059834,0.47923964,0.92359585,-1.3385825,-3.289268,-1.4040406,2.3467429,-0.9487508,0.9585334,-3.9160683,-0.8492091,7.8556027,2.6646996,6.545726,0.59316194,2.789282,1.6244515,5.5888257,-0.83892405,3.1521826,2.1286917,-2.1889796,5.0781364,4.306402,-5.225048,-1.6767054,-0.35649905,0.50361806,1.1956134,-2.4576705,6.486488,2.2833223,1.5393653,-0.87938595,1.8014817,4.79507,4.603247,-0.6944495,3.9898174,0.09895277,4.4379644,3.2472594,-1.5011781,-1.7360004,1.0326502,-0.82568,-0.32966483,-2.2772644,0.10183564,3.6843913,2.0744681,1.3655202,-0.09760231,1.5430595,4.791223,-0.13508308,-3.4110594,-1.0906456,1.1927168,2.6705272,1.2548068,2.3289464,-3.8762615,-0.51951754,0.80787104,3.648529,-0.7840191,3.7471607,0.38722953,-0.22419977,3.2595658,-1.2654738,-0.19000638,-2.6245427,3.8586378,0.46300173,0.87431955,0.47098166,3.0280278,3.1400652,3.6844091,-0.15559562,3.4965549,-4.2325244,-0.5861503,2.4684837,2.1826122,4.481865,2.401042,1.5325524,-1.771888,0.41600764,2.5165188,0.69089115,0.3521995,-1.9324019,-2.0569134,1.1100595,2.95535,1.863394,1.3321849,-2.8142653,1.1965463,4.5176296,2.1304133,1.6906221,0.36347494,-1.7756459,3.3964865,2.4231868,-0.9448767,6.4114547,0.7614945,1.021492,2.3555224,4.4162717,2.2388527,2.8982167,1.2381825,0.59971476,-2.1073945,0.4554996,0.019411564,2.5459883,1.0258873,-0.6917636,4.2470083,-1.6493729,3.233076,6.1403155,2.2756376,4.7684073,6.0706162,0.40331346,5.1641183,7.031305,9.094416,3.2289157,1.5255678,-0.36661917,2.886949,-0.7595965,-1.8229644,-0.49826628,1.0960321,0.51338136,1.8546772,3.6775749,-0.1661149,-0.5695047,0.12622085,-1.8274156,2.6479185,-0.73476267,-2.822493,-0.7227355,-0.17662841,2.7709358,1.8008385,-1.5998753,-1.4084102,3.4572332,6.091364,7.979626,-1.337361,4.0774503,-2.8778691,3.4701905,-1.1394209,5.8350377,3.4849062,-3.2081065,-2.5328777,6.9467826,-1.7946987,2.8356848,2.283088,1.8343773,-1.1407373,5.3675346,13.156038,5.7296906,3.468874,1.5423224,2.8974333,-0.76607394,-2.8046687,0.5851967,0.13591766,1.2557149,1.3782865,1.7652526,-0.19306654,2.5741897,3.2877712,1.2572805,2.9223058,-0.17850518,1.115798,1.015896,2.5355601,0.202589,-0.33842173,-2.2468913,1.3140138,-0.2550366,-2.9780467,5.33887,8.495768,-1.1215563,-1.1153309,4.3200455,-0.9723727,-0.8000438,3.7274034,1.2348549,1.0122057,-0.5849645,2.6995845,0.70791364,0.79655373,2.536141,0.57840955,0.114496365,9.745229,-2.2947383,6.149731,-2.4038386,0.7908572,1.3927269,0.2620449,3.12812,3.1037965,5.1828485,-1.1328063,0.73731446,0.37905705,3.8144488,2.3987541,0.19366294,0.6794862,5.328183,5.9023285,2.6578789,2.215899,4.8072453,0.038705528,-1.499325,-0.9908092,-1.0776544,9.962632,-1.2900875,-3.5702114,1.6920197,5.1813354,2.3120081,1.7335544,0.7222276,-1.561514,-2.1259916,1.2701613,-2.570489,0.67888856,-1.6902152,-1.9149282,-2.7860897,-2.630375,-1.3043149,-0.94703364,-0.28551367,-1.7891588,-0.14300561,-1.212782,-0.87470174,-0.7896423,4.3112736,-1.2841475,-0.65067226,-1.5161786,0.08359571,-1.3882431,-0.9251126,0.7086773,0.79203427,-0.57238823,-2.5526228,0.022460938,1.6154451,0.0009455681,1.290103,1.6873541,-3.0057669,-1.3090512,0.58050215,1.1692231,-0.9432449,-1.8775461,1.4804982,-2.7331085,1.8286538,0.9776033,-1.18842,-1.1433681,0.90274656,-0.7936322,0.5335706,-0.7674668,-0.6463351,-1.6181195,-0.17435831,-1.2935898,0.39588997,-2.1243043,-2.8166037,1.5541402,-1.0762695,1.6629293,0.891041,-1.231317,-2.9978433,2.9817088,1.0456691,-0.44304642,0.58500123,-2.4564092,-4.0900784,1.7388929,-3.4169111,-2.7836945,0.2990046,-3.0233355,-3.3054965,-1.1512735,-1.7141254,-0.7331312,0.85958743,-2.2028885,1.5354445,-0.3241911