-2.9313123,1.6369482,-4.112391,-1.0677305,-4.4939384,0.69591427,-0.62608445,0.96504813,-1.9873333,-1.9524908,-1.2624893,-2.663751,-2.7110877,-2.4162438,-2.2637956,-0.9612908,-2.3906896,-2.4348707,-2.5480292,-1.3264717,-1.2754161,0.13396636,-0.42070898,0.08279276,-0.039781123,-2.27452,-1.829496,-2.8019137,-2.3879886,0.42013246,-3.8635564,-2.5467665,-5.8317747,-2.9842873,-1.204781,0.96408385,0.29346776,0.99622834,-1.73124,-2.553852,-2.077244,-4.5126257,-2.5966353,-3.9667666,-2.2751284,-2.9864504,-0.95798004,-2.819368,-3.5761056,-3.7792118,-1.1014706,0.18410718,0.68431664,-1.2535951,-1.7517631,-0.20829374,-4.3934674,-2.0124462,-4.3460937,-2.3156445,-1.1937646,0.4397651,-0.6520202,-0.5244768,0.34942144,-2.1162639,-0.10714018,-1.2559783,0.057369888,-0.79725194,-2.9052823,-3.4219766,-0.73877954,-3.0517747,-2.6282282,-3.7515156,-3.7252274,-2.2284572,-2.572612,-1.8825843,0.48283675,1.6063949,-2.6535444,-1.6300386,-0.5965917,-3.6952882,-3.3374352,-2.7557628,-0.88800204,-0.81034356,-3.7708178,-1.0136801,0.38800183,-3.5973926,-1.6448436,-3.81853,-2.6997542,-1.7299088,-3.3611903,-1.9781556,-4.729213,-2.735404,-1.385839,0.5456984,-1.9830534,-1.9889319,-2.25136,1.0659785,0.48483026,-2.8886347,-1.2955444,-1.0676962,-1.8166819,-0.11038095,-3.293031,-2.251245,-4.007434,-2.626925,-1.1507761,-0.49640417,-1.4786835,-3.5705492,2.5922823,-0.88505703,0.6189985,-0.99870825,-2.404046,-0.29212707,-0.9654279,-2.5744162,-2.432214,-3.0273113,-1.5396804,-2.4808936,-1.4857187,-3.528868,-2.3756266,-1.8176109,-0.29361832,-1.8487058,-4.8977885,-2.531682,-3.036356,-1.5290043,-2.526318,-4.304268,-2.2077894,-2.5950155,-1.1861675,-1.6936587,-3.9403305,-1.9082693,0.72315764,-3.1347318,-0.6028681,-2.4382076,-2.2729783,-3.0513186,-1.7600296,-2.20921,0.09665394,0.25735047,-0.5449559,-1.1579057,0.58413684,-0.8680111,-0.23898914,-1.7320659,-2.1228275,0.010379672,-1.9921303,-0.12192385,0.40786457,0.40933982,-0.8095194,-0.07044619,-0.8848814,-0.7507596,0.39909586,-0.39409065,1.9387661,-0.8338287,-0.5191829,-1.7615092,3.081629,0.16021568,2.2065275,0.93900687,0.12990493,-1.1982068,1.0548191,1.505428,-1.3726383,-0.4554346,-1.1788216,1.985615,0.80050623,-0.54469043,1.6773401,0.41130823,2.1184554,-1.0544434,-2.5969903,1.1604433,1.8648639,-0.3951105,-0.3594941,1.6251961,-1.2897376,0.37406513,-1.3242486,-0.38991934,0.74901104,-1.546119,-2.8225667,-0.19617209,-1.6560142,1.0660219,-1.1282816,-1.3566797,0.16455993,0.4082408,0.4859476,-0.3894608,0.12617302,-1.1645231,0.11763272,0.14919098,-0.7120128,-0.41168988,-0.11871591,-2.195592,-2.848711,-0.76614076,3.0953019,1.17552,0.17804751,-0.6316975,-1.2096143,-0.6346549,-0.4728784,-0.8262855,-1.2901679,-0.6179551,1.1573869,-0.9426663,-1.1741083,0.40291572,-1.1806846,-0.09315288,0.24845138,0.10360101,0.44363773,0.59045553,-0.9005999,0.87638754,-1.0030615,2.2283351,-0.24829155,-0.59113777,-1.2285249,-0.79855406,-0.04893617,0.021220088,-0.6648279,-0.5843885,0.40492103,0.9862665,1.4124119,1.8570408,-0.3964337,0.22852236,-1.005479,-0.65014017,-0.57067084,-1.5545924,-1.220026,-0.45053667,-2.1710808,-1.4865013,-0.7796521,-2.5634472,0.09854025,-1.2105129,-1.5336499,-1.3181875,1.7147813,-1.4720702,-2.821748,-1.0722679,-2.0430691,-3.5001237,-1.3075575,-1.0363846,1.1316764,-1.5722632,1.4567149,-1.1577904,-1.9707972,-3.6914957,-2.964666,-2.3897038,-1.5335561,-0.22570813,-1.604305,-3.005619,0.50852597,-0.86345524,-1.1547843,-3.135944,-3.6446142,-1.3082037,-3.0270073,-2.0638685,-0.0018812418,-0.6304501,-3.017689,-4.375182,-2.8209362,-2.7742133,-0.35890937,-1.7002343,-1.9088597,-3.872665,-1.4086877,-2.7645366,-2.3476887,-0.64564043,-0.77367145,1.7859948,0.20768465,-2.6868405,-3.5993547,-0.6955131,-2.910059,-1.2988806,-3.5175428,-2.6314034,-1.0254798,-1.6980206,-2.9127555,-1.5990777,-0.45496774,-1.8251647,1.0659177,-1.1134493,-2.8725607,-2.2810087,-3.0679727,-1.3289822,-0.8590573,-0.8804718,-1.0155278,-1.4171395,-1.1413332,-0.58170307,-1.5909796,-2.0676706,-1.1516082,-1.7644572,-1.9930183,-3.0116696,0.5004664,-1.6487339,0.5184327,-1.8323424,-3.599739,-2.9732392,-1.3303878,-2.3114607,-1.7433223,-2.552064,-2.110479,-1.3157506,-1.2768927,-3.9947746,-2.2015178,-4.7134013,-5.191725,-0.8694349,-2.753529,-3.4625022,-3.264549,-1.7714603,-1.5367208,-1.5675815,-1.8977354,-1.0615244,-2.919991,-3.4504209,3.4542494,0.44440347,3.3782635,-1.543797,-4.0677133,2.6539142,3.3972678,-3.7369423,-3.253005,1.6967949,4.2198935,2.3811905,3.961786,2.4555945,-3.7705073,-4.122459,-0.14159602,-1.2465591,-0.7195138,-1.8654795,1.7202439,1.8697784,2.6969748,0.8643615,2.909567,5.4988775,-0.9676883,0.21239349,1.8113725,1.6684974,0.91983914,2.7113526,-0.18549287,4.4947853,2.505598,0.3534001,-0.26964617,1.3756323,3.3080251,1.3766282,2.771784,1.6629311,2.2658014,5.5629406,2.579021,-1.0040925,1.7091894,-3.0337908,-1.1787735,2.7672482,4.1795626,-0.58242524,1.069268,0.07424936,0.2558499,2.500098,-0.34291083,2.2685452,1.8725905,0.6352958,-1.8330042,-0.006302774,4.501518,2.4138362,0.09624684,0.7958773,4.1686897,4.26673,3.5616684,-1.3505869,2.1883316,-0.24710724,5.3351355,3.408063,3.2284825,7.178535,7.482082,-2.808755,-2.5792682,-2.298293,4.033774,1.9989493,-0.5719523,0.21308684,0.019225836,8.428717,-0.8571836,-2.127577,3.51059,0.5070349,0.025172617,2.2595143,2.2087216,1.0989119,-4.016679,-0.58945864,-0.40904507,1.5415814,1.0868897,2.206056,1.2308097,5.2889156,3.4915447,0.8218742,0.6953126,2.8003063,-0.16882694,-1.059902,-2.480773,-0.73741233,2.6881342,-1.0340477,2.9914591,2.2333736,3.498247,0.9161637,0.74136186,1.0146775,-0.22104135,-1.2233336,-0.852225,-2.7094183,-2.2111213,4.749294,4.193393,3.48156,2.0520077,0.59003216,-0.07531273,1.832674,1.1347978,-0.33156645,2.2247686,6.324866,7.551506,5.608655,-3.6671276,1.0613698,0.96384096,2.4510036,2.600996,0.96155566,1.3015666,0.6148438,-0.96763605,-1.0214939,-0.09817994,-1.5600814,3.364112,-1.2815509,2.1239567,0.7053057,5.2861156,4.9542537,4.1265497,4.112128,1.6652324,2.716182,-5.307613,0.20129704,-0.28013003,0.60219675,3.6309943,1.1265965,2.468709,-1.2692914,-0.85144717,0.6226648,-0.6824971,5.455649,3.0630255,-1.2909807,-0.072562665,0.9916866,0.97047853,-0.30745542,-4.016293,2.3522887,1.9469247,4.637026,0.22621945,2.0526752,2.5232658,1.3271527,-2.5256572,4.221297,-1.8442003,-0.0043485463,5.2443676,2.5137439,3.217576,-2.3902178,-3.941988,-1.316743,0.8768004,2.838865,2.6838636,-2.7861938,4.3393736,3.3953543,2.3984647,3.9010103,-0.46745282,-0.25832456,1.5808879,0.8956722,-1.4457513,5.1134825,3.7418985,-1.940857,1.5787861,1.398854,2.6353548,0.8877683,-4.7093396,2.7874405,0.113522254,3.959729,0.5853659,5.6453414,-1.7610846,7.4557657,0.68100417,1.3451213,1.4068936,4.2552648,4.9057064,-0.7254524,1.3273039,2.137939,-1.1471928,1.7930381,0.11967218,1.6598575,-0.023091197,0.341082,-2.050595,-0.9632562,-3.9407752,-1.1999004,-0.5391617,4.660803,0.3167515,1.0297229,1.8341448,-0.10951015,1.960089,5.3071246,0.6524741,2.3797896,0.43084568,-0.7606541,3.1516914,5.6541424,3.5575538,1.534117,-0.12578091,1.0970366,1.913991,-1.4655449,-0.40360123,4.0096507,0.34294033,4.177948,0.9921539,-1.7867826,5.1910515,-2.5346398,-2.3259976,0.9653355,1.5683299,-1.605766,-3.8369675,-0.81895566,-1.4510016,0.22831094,-0.12673017,2.0886478,2.1308427,-1.9365118,-1.7931247,-2.3361988,2.5140185,2.0721176,0.2545197,1.3420224,-1.248712,1.2428005,3.360464,4.1829624,-0.12398711,1.1819367,4.4432054,-2.852044,7.233848,2.952297,-3.971114,-1.9390838,0.77085054,1.2897327,3.350491,-4.296462,2.735717,0.17959654,1.7551985,-1.4711769,0.7528919,3.3867593,1.4334619,-1.6629373,3.6422555,2.255559,1.1351193,3.8963823,0.1775831,0.0045043975,-2.129218,-3.6093688,0.27518344,-0.3327764,0.6949258,3.5994546,1.9581434,2.9108584,1.8363733,2.1261568,3.136034,-0.6896368,-4.2957377,-1.0117655,0.66352963,0.48264724,0.39102784,4.018708,-0.32896727,1.0700247,1.8385298,1.1505939,-2.065991,1.4644396,-0.060510933,1.0174428,5.4075284,-0.44315302,1.4848318,-4.048597,1.6013514,2.2125328,0.5535505,1.177307,3.463249,4.9406633,0.68027234,0.15216991,1.6049634,-0.9921637,1.5252858,4.695489,3.111363,1.3024232,4.279697,0.031796843,-3.539959,2.2695792,0.05959388,1.4666945,2.4087923,2.1542225,-2.192908,2.0297136,2.72254,2.3196297,1.023016,-2.2457786,1.8604227,3.6545472,3.2246966,2.321946,-0.011730969,1.0357579,1.2855133,0.96090996,0.59500563,1.8098805,-0.15958336,-0.32353425,3.4879043,5.9451942,3.4208786,0.8250921,0.47317487,2.5742211,-0.6804733,1.4039521,1.6290208,2.767217,-0.26062226,2.3545485,4.7778106,0.05557412,3.3401241,2.9677105,0.91272116,7.321006,2.9456346,-0.048072934,4.8293376,3.8220801,2.90664,2.4936154,-0.5083901,0.57340795,1.4325358,0.5845368,-1.4274516,0.89855117,1.5563753,0.7490723,4.662092,3.6208773,-0.17129704,-1.2527672,-1.3748002,-1.9191757,3.096008,-2.5682764,-1.8267524,0.5936021,-2.8278158,2.2692664,3.2839453,-2.4105139,-2.2271771,7.624093,4.1149426,6.4011564,-1.3902501,5.081225,1.0797391,2.7565444,-1.8452513,3.3750646,-1.1777529,-1.7018336,-3.4010398,5.9750357,0.66670525,4.186449,3.822222,0.8725326,-0.96801674,4.2053294,7.819098,1.919179,2.7499,-0.042351604,3.8618388,0.43100286,-2.948168,0.76537645,0.23788041,-0.19031113,2.4541957,3.2877774,-0.07580459,1.0493443,0.70664203,-0.03316331,1.5051324,-1.8716687,0.09651947,0.6809495,1.9947685,1.5471487,-1.9319174,-3.4825494,-1.2635076,-0.5345038,-4.2196803,3.812436,4.9324236,1.4003401,-2.5841208,4.3666,0.8675403,-2.5966191,3.7343857,1.4594128,2.5354104,-1.3598866,3.4067776,4.9592447,2.76821,2.3737917,2.7356975,-2.298516,6.441434,1.3507777,1.8429971,-1.4749037,2.1995006,0.3772807,1.7787912,2.0306668,1.7544832,3.039061,-1.596414,-0.09069282,1.260875,4.873839,2.7850745,1.5789666,0.17269439,3.5026078,5.1151943,0.06762338,0.4908285,2.2349184,0.11039424,-2.114924,2.3080986,0.07650691,6.372898,-3.4456916,0.5893119,1.3007991,2.2331946,3.271422,-0.027508259,-0.97295845,-1.1398448,-0.39031115,-0.19718799,-0.24594724,0.568148,-1.6922214,-1.0881964,-0.25701594,0.22973219,-0.45851338,-0.06512058,-2.8122602,-2.4820642,-0.8429004,-4.2415943,-1.4624448,-1.930936,1.6451658,-0.5936691,-0.33124664,0.0106704235,-1.678317,-2.8767948,-4.1319976,-1.1503901,-1.5730972,-3.723649,-1.7236062,-1.1913875,0.30247694,0.39572167,1.1875184,1.9805291,-1.9581221,0.8992357,0.5074215,-0.20984006,-0.23151246,-0.9416035,1.4226635,-1.5764191,0.6560829,-0.3858838,-2.148494,-1.2206284,-2.5291562,-1.9822451,3.463779,1.865894,0.47369492,-0.5288139,1.230927,-0.6444354,0.08447474,-1.5290864,-0.16232544,1.2414999,-0.9751129,0.40228367,0.3729757,-2.7234144,-0.6958151,2.5874953,2.00429,1.0955597,0.49917194,-1.5492368,-5.26286,-0.21265721,-2.8537219,-1.4824045,0.069563985,-4.076275,-2.4492862,-2.9214673,-0.61794496,-1.2826977,0.014912039,-2.107704,-0.35538834,0.89978766