-3.1242828,2.085999,-2.1357434,-3.7979515,-4.2421064,-0.5227301,-2.866961,-2.080012,-4.3662577,-4.383623,-4.483597,-4.610156,-3.5819263,-4.2286944,-3.9634433,-1.9467317,-2.855894,-1.5322363,-1.6750677,-3.188767,-2.1395702,-1.1947697,-1.8525388,-0.7924388,-2.694958,-1.3546731,-2.8249674,-2.7557902,-1.6769379,-1.841428,-5.1621723,-2.9936879,-2.4617305,-1.8568741,-4.7263694,-1.4522141,-2.8495533,-1.1682599,-5.206861,-2.5037687,-3.1268148,-2.2943518,-2.1962337,-1.9774702,-2.3871121,-3.9871233,-5.030349,-1.4817768,-2.2121325,-4.437053,-2.2860596,-1.756638,-1.9594786,-0.08575833,-1.7970781,-1.9327056,-0.8971232,-3.0071144,-6.3230405,-3.8581722,-0.40962672,-2.0660963,-2.3081243,-2.54668,-2.0473192,0.16674376,-2.5623202,-2.0470028,-0.86152196,-1.8592604,-2.1065247,-5.6577377,-1.4631246,-3.7919204,-3.3441353,-5.138059,-3.9050422,-4.0212092,-6.647359,-2.1007407,-1.38785,-1.466263,-4.366884,-0.9976875,-2.4708805,-6.358682,-1.9794073,-2.6327395,0.39530548,-0.38781968,-3.5256205,-3.1254172,-2.5557313,-2.1156495,-4.5059333,-3.6881776,-4.362569,-1.895612,-2.734723,-1.968797,-3.2237632,-3.4244528,-3.2626414,-1.0891453,-0.8282937,-1.705802,-1.7618493,-1.4040695,-2.600786,-3.780037,-2.6062107,-1.5057256,-0.44239974,-1.2720556,-2.518982,-2.2602835,-4.605344,-1.8404783,-3.7300825,-4.108341,-2.722097,-4.9369006,-1.8513114,-1.5827428,-2.0936742,-2.507866,-2.9355404,-3.4471586,-2.8826525,-3.6351795,-1.9165522,-4.307386,-2.826679,-1.7692318,-4.765984,-4.768219,-4.187275,-2.841023,-1.5791655,-4.573501,-6.026907,-4.6178308,-3.288443,-2.797131,-3.1934988,-2.4110675,-0.30142808,-1.3409963,-1.6664325,-3.1287408,-3.889307,-2.5542698,0.2922912,-0.09410095,0.75257635,0.090005636,-1.5794277,-1.8850008,1.1777,0.35333654,1.5765254,1.9136184,-0.42971295,0.7800337,0.78111047,0.9690312,0.6281326,0.12466115,0.22777689,2.089438,-2.5308807,0.45102274,0.68935233,-0.985186,0.13328096,1.8260285,0.73627955,0.012935877,1.7613668,1.6644113,0.65406716,-0.8338687,2.174063,0.738138,2.2453387,0.64459145,1.9271393,-0.19987439,0.8552536,0.5977233,-0.7462409,1.5289532,-1.449649,1.1927147,-0.4960894,0.6499328,-0.12781674,1.3550211,1.26729,1.2368972,1.4387267,-1.0377636,-2.2105165,-0.38547897,1.4350084,0.08692372,0.8404975,0.64360654,1.312607,2.3077848,-0.32924432,1.1029325,2.179288,-1.4091154,-1.0168654,0.44438276,0.597091,0.32733572,-0.9019023,-1.9433734,-0.015846103,2.161241,-0.75353813,1.8806698,1.9256414,1.013136,1.1329745,-0.5691964,0.49735123,1.679125,0.6424823,-0.46837157,-1.44295,-0.6050032,2.706166,1.4679027,-0.18376279,0.2152765,1.0310633,0.8471336,-0.35737044,1.9542733,-0.3564511,-0.35500932,-0.24283147,0.6434358,-1.216433,0.066363454,0.092249036,0.11708903,0.031282306,-0.68604034,-0.82444566,0.5404237,0.15562564,0.6890614,0.20230764,2.8282254,1.7541828,0.51060283,-0.06609291,0.11215961,1.2244675,1.5783536,-0.6419683,-0.8357549,0.111705706,0.119326584,1.6472263,0.029248714,-2.0051134,0.3210849,-1.8355829,-0.11935496,0.5407648,-2.1409392,-4.622342,-2.3841121,-0.7619992,-1.7993037,0.12302917,-1.746157,-0.009625435,-1.4195048,-1.8541204,0.7368493,1.0600028,-1.3908869,-2.4226527,-3.8404477,-5.1086645,-3.2588053,-2.7331042,-1.9850665,-1.0259297,-2.856842,-0.45361924,-0.96031404,-2.5794494,-1.6910535,0.21283266,-5.0795374,-0.698339,-2.1484506,-3.0730307,-2.2086525,-3.0873845,-1.7216027,-2.8443131,-1.2215438,-2.7575567,-2.746303,-1.618005,-1.2698319,-0.6493759,-2.0607495,-2.3865404,-4.521905,-2.5143538,-1.0452012,1.0964035,-1.693823,-4.5087066,-2.7297025,-3.4890604,-2.5441682,-3.5046334,-2.4069471,-0.304254,-0.081309915,-2.4216483,-2.4557986,-3.43091,-0.55874205,-2.5994902,-1.4368517,-3.4813175,-2.2665074,-1.4415436,-2.1575155,-3.038591,-1.9348311,-0.9673511,-1.4260906,-0.53511703,-4.9306073,-3.4155712,-3.5670383,-5.4735336,-2.7761364,-1.4110477,-2.3894997,-1.8840091,-1.9622006,-2.0780318,-2.174397,-3.1416883,-1.0755887,-3.3913043,-1.0673767,-1.5192792,-3.2146497,-2.6742756,-1.7130368,0.69277054,-1.2683351,-1.5811765,-2.0244632,-0.6236652,-1.3275816,-1.2194074,-2.83918,-1.7620715,-0.8472203,0.25816533,-2.2192788,-2.9031858,-0.37225407,-3.2411203,-0.7930127,-2.8820395,-1.1733869,-1.1323879,0.4978356,-1.5834616,-2.2966366,-3.1488063,-1.2485386,-4.178691,-2.9741828,3.3952713,-1.4769858,2.7759628,-0.9927389,-1.8989185,-0.3148012,4.1586137,-6.1261315,-5.06019,-0.048323065,7.123097,4.1892705,2.1952271,1.2001173,-3.1671033,-2.6589875,-2.1812906,-1.5457786,-1.0224417,-3.496106,0.61105657,-1.8488865,8.382178,0.8441985,1.6005008,5.381309,-0.6817019,5.145419,2.6614492,2.776916,4.6278596,-0.34351772,-0.9159795,4.241268,3.6177285,0.30817354,0.30574182,-0.08563763,-0.46513033,2.5137825,2.9589908,2.1295147,7.627001,4.9753156,2.1204278,9.405426,3.2752862,-1.7683858,0.32158148,1.7592545,3.4196186,-0.70075107,0.6275551,1.5936444,5.6734414,-1.4296714,3.2714622,1.9184,2.3851779,2.1792674,-1.7301002,0.55017954,3.1441512,4.299245,-0.50908375,0.19960451,3.9170806,3.0470247,4.0566015,-1.4375057,4.9765673,-2.1693425,3.1077425,6.254498,3.2711816,4.90691,7.647268,-2.0266395,-1.3507167,-1.3943987,2.0375023,1.4737631,-1.6975114,0.14927018,1.9296019,12.005267,-2.139416,-4.598848,3.309649,1.9231073,-1.6431823,-0.08861518,0.57261527,1.4742315,-4.7146716,-1.7500505,2.172094,0.04351063,3.4084191,1.7970076,-0.044216275,4.0367727,1.4485757,2.0114713,-0.85068816,3.1553824,-0.024968743,2.2354102,-2.2175937,0.43277228,5.6719713,-0.541764,7.5884776,4.1949787,2.378703,-1.2563287,1.908184,-0.91173005,2.0579748,0.93834215,-1.9937904,-2.0416155,-2.4127748,1.8100543,2.2926571,4.114542,4.516628,5.8277254,-0.7604038,2.0827744,1.7682233,4.2411513,0.017323613,5.351836,7.7144847,2.1408281,-3.2278547,1.9189825,1.7000246,0.6432623,5.946803,1.5294096,2.9696856,3.2097821,1.8945599,0.05847305,-1.0606849,-3.8717196,0.08861196,-1.8350626,4.337468,-0.37175345,1.1755383,2.60924,6.4977365,-0.77271146,0.72647715,1.2740159,-6.1329126,-0.8700684,1.7511984,-0.44693366,4.760613,2.3585958,1.8328453,-2.7501948,-2.9828517,0.6911615,-0.8067984,4.2973194,4.205427,-1.1331869,-1.9841219,-0.8251983,-0.5155006,2.3543918,-3.9386613,1.7308748,0.13017064,8.27241,-2.1898725,5.302628,-1.2830002,0.82089126,-1.346924,2.9903412,-1.8480805,-1.7020117,1.0618057,6.518345,1.8490803,-3.1557274,-5.286653,-1.5824264,0.39072987,1.7962776,2.8301992,-4.724805,4.0539656,4.5960164,5.049419,4.6591496,4.713268,-1.0238233,2.238091,1.0755599,-2.3321857,4.2550335,3.6275072,-3.074543,2.4872017,3.0486705,7.4886374,3.9110525,-3.0010695,-0.79327375,0.022572361,3.88593,1.4031156,9.833444,-2.944756,10.016615,0.669299,0.92794406,1.9335415,7.9885507,6.274032,0.6092105,6.3172426,1.6737697,1.7135388,4.4463735,0.6081927,1.0517511,1.3774785,-1.6832116,-3.4881353,1.1795431,-1.9565268,-2.5837588,0.15057397,4.9658246,2.1965919,1.5497811,-0.2742325,-2.231823,-0.044225693,6.288949,0.5689606,6.8702083,4.7354407,-0.23401237,4.984221,2.6592727,4.353014,0.3279124,-1.6668503,1.283506,0.9336733,0.8052782,-1.0783601,4.3605256,-1.2503335,3.5114348,-1.9120672,-0.17766269,9.492557,-1.4906955,-2.709306,4.4252644,1.0222408,-2.080296,-3.948428,1.5595381,-2.1450922,-0.06889415,-0.53057045,0.46101856,5.956551,-2.286866,3.965789,-1.3101966,-1.3383286,3.142606,0.79536116,2.418779,-1.8824413,3.9697623,3.7504334,7.4882855,2.1088204,5.0233655,7.013955,-2.061386,5.749391,1.8682795,-3.472536,-0.80669254,-2.194337,-1.8435073,7.5528183,-4.2367487,3.513623,0.7687018,2.2254498,-2.5150888,1.7401968,3.8395033,11.13417,-4.092954,2.2278614,5.8585176,2.3041503,4.516999,0.84092915,-0.74914086,-1.6150599,-2.7805555,-1.5159553,1.3993974,2.247197,2.8263745,2.2165666,-0.0164572,2.6310668,1.3968109,2.3334088,-0.19948256,-5.746843,0.06742501,3.719528,2.741448,1.6328816,2.6049476,-1.0320402,-1.0735202,1.717982,0.11881314,-3.780767,2.9290648,0.22138837,-1.4594178,5.1818147,1.7723699,1.5999898,-3.7051084,9.791765,2.3996086,0.15433776,-0.044532955,3.6081846,3.8810363,2.00634,1.7486856,1.5333943,-2.2549915,1.3183334,1.1072999,1.8895577,4.2153153,1.708354,4.470272,-3.5808246,5.311954,2.0391786,0.5764045,0.6623512,-1.7877204,-4.041613,3.6095943,-0.41567603,1.7913702,3.058836,-1.3235831,2.4529727,2.1242156,6.0153413,-1.6671395,1.111501,0.3813847,2.5675325,3.4397173,0.2666413,3.6002328,-0.21496725,2.5605311,7.8264413,2.6577883,0.8317145,1.9396065,-3.3418624,0.97584903,-2.1617002,1.6883202,1.4635141,1.7660043,3.3085036,0.27002382,1.2181199,0.3043009,2.9670866,3.65879,2.162618,4.386993,6.273686,1.7596884,3.1798832,5.6096,5.7170925,3.4464555,0.037610352,-1.7006817,2.3609571,0.11556661,-2.513426,2.559815,4.8325505,4.3692036,2.4078805,4.2299414,-1.727818,0.0392828,0.7382027,-1.7728049,4.7019615,-0.36045676,-2.813377,-0.052363187,-3.5760925,5.3870177,1.1383908,-3.8966134,-3.7486763,0.6071954,5.4762774,11.052189,-2.6180015,2.427903,0.58929956,3.9919653,-3.8241377,3.3501542,3.9249954,-1.0371455,-4.123663,7.9617105,-0.42204452,6.438034,6.570347,4.005288,-0.20247465,8.044921,10.927284,5.1626806,5.329297,3.2440867,2.4857144,3.1555169,-4.880999,1.187401,0.73963267,2.4021995,2.0895114,6.030006,1.4324241,2.8747656,2.3570244,-1.3783599,1.5104618,-2.0467167,0.528206,0.2842412,2.7575097,4.825863,-0.71074843,-4.2743697,-0.68627894,-3.3152595,-3.5143058,4.5200696,8.108575,3.9637048,-2.5532088,2.8076003,-1.7028635,-5.244585,1.8755659,3.0642214,-0.13332613,-0.99807453,5.0388,2.1034188,0.75714684,4.8822293,2.0450416,-1.9068727,9.048292,-0.8440985,4.172981,-3.3847535,1.8740383,3.2548716,0.85127676,0.7648076,2.6275795,2.197392,-0.8113882,1.4360217,1.2009785,4.72206,3.2636473,-1.1473014,0.5604854,2.4767883,5.780863,1.0885775,2.0761235,4.5079994,0.23513067,-0.6253434,1.8408303,1.1455921,9.317004,-2.1787624,-2.3515582,-0.101581335,0.63482267,2.0611095,-1.4767921,1.4716004,-1.0161737,-0.38064227,0.70918024,-2.3662171,-0.018213928,-0.80085075,-3.4132042,-2.864607,-1.4593924,-1.1193712,3.768155,-1.3477626,-1.6778051,-0.9099606,-3.6533508,-0.40321663,-2.8279138,1.1481324,0.09412509,-0.65511334,1.2627628,-1.7296984,-3.5622947,-3.3574407,-1.5943084,-3.771144,-3.4788957,-5.1391068,-1.0530548,0.5924325,-2.2662349,-0.9581406,-1.7392834,-3.828141,-2.43367,-1.9135605,-1.8945625,-3.4830334,-1.924448,1.8346281,-3.1234648,-0.62532425,-0.74570227,-2.296386,-1.1642094,-3.0353327,-1.2776195,2.2009249,-1.8843098,0.51803064,-2.4137654,-1.0617368,-0.4621346,1.2970955,-2.4388561,-1.5981202,0.09469336,-1.8946056,0.96868104,1.6591265,-2.4070334,-1.2484567,3.673149,1.6357007,-0.7806599,-1.1353208,-1.254195,-4.029346,0.20781577,-3.2610426,-2.8219843,-2.154778,-4.9083843,-4.447985,-5.618328,-2.0996292,-2.5553823,-0.5813683,-4.0179715,1.1915288,4.9834185